{"learner":{"attributes":{"scikit_learn":"{\"_estimator_type\": \"regressor\"}"},"feature_names":[],"feature_types":[],"gradient_booster":{"model":{"cats":{"enc":[],"feature_segments":[],"sorted_idx":[]},"gbtree_model_param":{"num_parallel_tree":"1","num_trees":"155"},"iteration_indptr":[0,1,2,3,4,5,6,7,8,9,10,11,12,13,14,15,16,17,18,19,20,21,22,23,24,25,26,27,28,29,30,31,32,33,34,35,36,37,38,39,40,41,42,43,44,45,46,47,48,49,50,51,52,53,54,55,56,57,58,59,60,61,62,63,64,65,66,67,68,69,70,71,72,73,74,75,76,77,78,79,80,81,82,83,84,85,86,87,88,89,90,91,92,93,94,95,96,97,98,99,100,101,102,103,104,105,106,107,108,109,110,111,112,113,114,115,116,117,118,119,120,121,122,123,124,125,126,127,128,129,130,131,132,133,134,135,136,137,138,139,140,141,142,143,144,145,146,147,148,149,150,151,152,153,154,155],"tree_info":[0,0,0,0,0,0,0,0,0,0,0,0,0,0,0,0,0,0,0,0,0,0,0,0,0,0,0,0,0,0,0,0,0,0,0,0,0,0,0,0,0,0,0,0,0,0,0,0,0,0,0,0,0,0,0,0,0,0,0,0,0,0,0,0,0,0,0,0,0,0,0,0,0,0,0,0,0,0,0,0,0,0,0,0,0,0,0,0,0,0,0,0,0,0,0,0,0,0,0,0,0,0,0,0,0,0,0,0,0,0,0,0,0,0,0,0,0,0,0,0,0,0,0,0,0,0,0,0,0,0,0,0,0,0,0,0,0,0,0,0,0,0,0,0,0,0,0,0,0,0,0,0,0,0,0],"trees":[{"base_weights":[6.116392E-7,-1.6673605E1,7.6472936E0,-2.4213972E1,-8.074924E0,3.5782764E0,1.5548888E1,-3.1757069E1,-2.0404392E1,-1.2473862E1,-7.247933E-1,-3.5422895E0,1.2114823E1,1.284802E1,1.8187311E1,-5.405766E0,-3.242744E0,-2.395523E0,-1.909802E0,-1.507831E0,-9.058165E0,-1.7668363E0,1.6200298E1,-3.608673E1,-1.087642E0,5.947062E0,1.6088888E1,1.1708452E0,1.5084746E0,1.8046021E0,2.2710853E0,-1.0452021E0,-7.6197445E-1,-3.8473496E0,1.1306788E0,8.9199054E-1,2.1747205E0,-4.5647545E0,-2.1456316E0,-6.310779E0,3.484256E0,-3.5064807E0,6.5816097E0,1.7753326E1,6.749558E0,-5.360325E-1,-2.6355544E-1,-1.1768782E-3,3.1084412E-1,-9.41713E-1,-4.1077083E-1,1.0713047E-1,7.1261144E-1,4.224941E-1,9.53272E-1,1.5524107E0,2.34477E0,-5.198437E-1,8.0560166E-1],"categories":[],"categories_nodes":[],"categories_segments":[],"categories_sizes":[],"default_left":[0,0,0,0,0,0,0,0,0,0,0,0,0,0,0,0,0,0,0,0,0,0,0,0,0,0,0,0,0,0,0,0,0,0,0,0,0,0,0,0,0,0,0,0,0,0,0,0,0,0,0,0,0,0,0,0,0,0,0],"id":0,"left_children":[1,3,5,7,9,11,13,15,17,19,21,23,25,27,29,-1,-1,-1,-1,-1,31,33,35,37,39,41,43,-1,-1,-1,-1,-1,-1,45,47,-1,-1,-1,-1,49,51,-1,53,55,57,-1,-1,-1,-1,-1,-1,-1,-1,-1,-1,-1,-1,-1,-1],"loss_changes":[2.7210197E5,4.331025E4,4.6982336E4,9.610766E3,1.0175779E4,5.882205E4,3.3079688E3,2.3264531E3,7.5784375E2,8.598164E2,2.1273872E3,4.2140098E4,1.0689199E4,4.0203906E2,7.0164844E2,0E0,0E0,0E0,0E0,0E0,7.395996E0,6.8555005E2,5.1596436E1,2.8384414E3,1.1770775E4,4.4490674E3,4.0306172E3,0E0,0E0,0E0,0E0,0E0,0E0,9.110687E1,9.5535965E1,0E0,0E0,0E0,0E0,1.351419E3,2.0290647E3,0E0,9.9238184E2,2.7051484E3,3.7450183E2,0E0,0E0,0E0,0E0,0E0,0E0,0E0,0E0,0E0,0E0,0E0,0E0,0E0,0E0],"parents":[2147483647,0,0,1,1,2,2,3,3,4,4,5,5,6,6,7,7,8,8,9,9,10,10,11,11,12,12,13,13,14,14,20,20,21,21,22,22,23,23,24,24,25,25,26,26,33,33,34,34,39,39,40,40,42,42,43,43,44,44],"right_children":[2,4,6,8,10,12,14,16,18,20,22,24,26,28,30,-1,-1,-1,-1,-1,32,34,36,38,40,42,44,-1,-1,-1,-1,-1,-1,46,48,-1,-1,-1,-1,50,52,-1,54,56,58,-1,-1,-1,-1,-1,-1,-1,-1,-1,-1,-1,-1,-1,-1],"split_conditions":[2.2E1,1.1410824E0,1.6556692E0,9.499871E-1,1.3323486E0,4E1,1.7751039E0,6.468315E-1,1.0670958E0,1.2402537E0,1.605821E0,1.0949645E0,6.2355316E-1,1.7127774E0,1.8392509E0,-5.405766E0,-3.242744E0,-2.395523E0,-1.909802E0,-1.507831E0,1.2954092E0,1.4368154E0,6E0,8.3649486E-1,1.4368154E0,1.22E2,4.3E1,1.1708452E0,1.5084746E0,1.8046021E0,2.2710853E0,-1.0452021E0,-7.6197445E-1,1.3890214E0,1.4924024E0,8.9199054E-1,2.1747205E0,-4.5647545E0,-2.1456316E0,1.3387815E0,1.542443E0,-3.5064807E0,5.8862215E-1,6.758871E-1,1.3257207E0,-5.360325E-1,-2.6355544E-1,-1.1768782E-3,3.1084412E-1,-9.41713E-1,-4.1077083E-1,1.0713047E-1,7.1261144E-1,4.224941E-1,9.53272E-1,1.5524107E0,2.34477E0,-5.198437E-1,8.0560166E-1],"split_indices":[1,2,2,2,2,1,2,2,2,2,2,2,2,2,2,0,0,0,0,0,2,2,0,2,2,0,1,0,0,0,0,0,0,2,2,0,0,0,0,2,2,0,2,2,2,0,0,0,0,0,0,0,0,0,0,0,0,0,0],"split_type":[0,0,0,0,0,0,0,0,0,0,0,0,0,0,0,0,0,0,0,0,0,0,0,0,0,0,0,0,0,0,0,0,0,0,0,0,0,0,0,0,0,0,0,0,0,0,0,0,0,0,0,0,0,0,0,0,0,0,0],"sum_hessian":[2.132E3,6.7E2,1.462E3,3.56E2,3.14E2,9.66E2,4.96E2,1.17E2,2.39E2,1.96E2,1.18E2,5.27E2,4.39E2,2.48E2,2.48E2,8E0,1.09E2,1.42E2,9.7E1,1.35E2,6.1E1,1.12E2,6E0,3.6E1,4.91E2,1.73E2,2.66E2,9.1E1,1.57E2,1.66E2,8.2E1,4.4E1,1.7E1,6.5E1,4.7E1,3E0,3E0,2.5E1,1.1E1,2.29E2,2.62E2,2E0,1.71E2,2.25E2,4.1E1,3.5E1,3E1,2.9E1,1.8E1,1.16E2,1.13E2,1.46E2,1.16E2,7.9E1,9.2E1,1.23E2,1.02E2,2E0,3.9E1],"tree_param":{"num_deleted":"0","num_feature":"3","num_nodes":"59","size_leaf_vector":"1"}},{"base_weights":[-5.6856675E-3,-1.4890407E1,6.821145E0,-2.2339098E1,-7.912629E0,3.100741E0,1.3725449E1,-3.0154408E1,-1.9478096E1,-1.1771791E1,-8.463063E-1,-3.3316813E0,1.0851184E1,1.09540825E1,1.59469385E1,-5.0151777E0,-3.0401914E0,-2.3327427E0,-1.8805968E0,-1.4325882E0,-8.883897E0,-1.8437678E0,1.3847355E1,-3.1963408E1,-1.0768522E0,5.4881115E0,1.4696713E1,1.0001093E0,1.2937036E0,1.6082604E0,2.0826898E0,-1.0449893E0,-7.8893703E-1,-3.9092412E0,5.5566114E-1,6.6415584E-1,1.8652921E0,-4.7548947E0,-2.3968397E1,-6.075271E0,2.5865505E0,-3.2536142E0,6.050397E0,1.6073513E1,5.4367394E0,-5.214863E-1,-2.8096935E-1,-7.2042435E-2,2.1027437E-1,-3.0427806E0,-1.8515291E0,-9.9829733E-1,-5.157838E-1,1.0876833E-2,5.6444234E-1,4.0066138E-1,8.929059E-1,1.382422E0,2.0696685E0,-4.8235554E-1,6.700758E-1],"categories":[],"categories_nodes":[],"categories_segments":[],"categories_sizes":[],"default_left":[0,0,0,0,0,0,0,0,0,0,0,0,0,0,0,0,0,0,0,0,0,0,0,0,0,0,0,0,0,0,0,0,0,0,0,0,0,0,0,0,0,0,0,0,0,0,0,0,0,0,0,0,0,0,0,0,0,0,0,0,0],"id":1,"left_children":[1,3,5,7,9,11,13,15,17,19,21,23,25,27,29,-1,-1,-1,-1,-1,31,33,35,37,39,41,43,-1,-1,-1,-1,-1,-1,45,47,-1,-1,-1,49,51,53,-1,55,57,59,-1,-1,-1,-1,-1,-1,-1,-1,-1,-1,-1,-1,-1,-1,-1,-1],"loss_changes":[2.1684738E5,3.469867E4,3.7537227E4,6.6571875E3,9.480027E3,4.7497277E4,2.9774766E3,1.5200312E3,6.733672E2,8.387617E2,1.8429198E3,3.3601156E4,8.828848E3,2.8632812E2,7.2009375E2,0E0,0E0,0E0,0E0,0E0,2.712207E1,5.8201917E2,1.0355493E2,2.5902305E3,8.878345E3,3.8217144E3,3.1126445E3,0E0,0E0,0E0,0E0,0E0,0E0,6.282263E1,9.457277E1,0E0,0E0,0E0,2.3125586E2,8.009878E2,1.8312046E3,0E0,9.00374E2,1.952375E3,2.8260828E2,0E0,0E0,0E0,0E0,0E0,0E0,0E0,0E0,0E0,0E0,0E0,0E0,0E0,0E0,0E0,0E0],"parents":[2147483647,0,0,1,1,2,2,3,3,4,4,5,5,6,6,7,7,8,8,9,9,10,10,11,11,12,12,13,13,14,14,20,20,21,21,22,22,23,23,24,24,25,25,26,26,33,33,34,34,38,38,39,39,40,40,42,42,43,43,44,44],"right_children":[2,4,6,8,10,12,14,16,18,20,22,24,26,28,30,-1,-1,-1,-1,-1,32,34,36,38,40,42,44,-1,-1,-1,-1,-1,-1,46,48,-1,-1,-1,50,52,54,-1,56,58,60,-1,-1,-1,-1,-1,-1,-1,-1,-1,-1,-1,-1,-1,-1,-1,-1],"split_conditions":[2.2E1,1.1217903E0,1.6461202E0,9.031312E-1,1.3219094E0,4E1,1.7645633E0,5.764168E-1,1.0268301E0,1.2139857E0,1.5537149E0,1.1084588E0,6.2674904E-1,1.7005124E0,1.8492017E0,-5.0151777E0,-3.0401914E0,-2.3327427E0,-1.8805968E0,-1.4325882E0,1.272252E0,1.4234351E0,1.6812978E0,6.758871E-1,1.4209057E0,1.22E2,4.3E1,1.0001093E0,1.2937036E0,1.6082604E0,2.0826898E0,-1.0449893E0,-7.8893703E-1,1.3775419E0,1.4769711E0,6.6415584E-1,1.8652921E0,-4.7548947E0,9.031312E-1,1.3060124E0,1.5186676E0,-3.2536142E0,5.9285736E-1,6.7246854E-1,1.3257207E0,-5.214863E-1,-2.8096935E-1,-7.2042435E-2,2.1027437E-1,-3.0427806E0,-1.8515291E0,-9.9829733E-1,-5.157838E-1,1.0876833E-2,5.6444234E-1,4.0066138E-1,8.929059E-1,1.382422E0,2.0696685E0,-4.8235554E-1,6.700758E-1],"split_indices":[1,2,2,2,2,1,2,2,2,2,2,2,2,2,2,0,0,0,0,0,2,2,2,2,2,0,1,0,0,0,0,0,0,2,2,0,0,0,2,2,2,0,2,2,2,0,0,0,0,0,0,0,0,0,0,0,0,0,0,0,0],"split_type":[0,0,0,0,0,0,0,0,0,0,0,0,0,0,0,0,0,0,0,0,0,0,0,0,0,0,0,0,0,0,0,0,0,0,0,0,0,0,0,0,0,0,0,0,0,0,0,0,0,0,0,0,0,0,0,0,0,0,0,0,0],"sum_hessian":[2.132E3,6.7E2,1.462E3,3.23E2,3.47E2,9.51E2,5.11E2,8.4E1,2.39E2,2.24E2,1.23E2,5.2E2,4.31E2,2.3E2,2.81E2,7E0,7.7E1,1.15E2,1.24E2,1.46E2,7.8E1,1.16E2,7E0,3.7E1,4.83E2,1.81E2,2.5E2,8.9E1,1.41E2,2.16E2,6.5E1,4.9E1,2.9E1,6.2E1,5.4E1,3E0,4E0,1.3E1,2.4E1,2.04E2,2.79E2,2E0,1.79E2,2.17E2,3.3E1,3.5E1,2.7E1,2.9E1,2.5E1,1.3E1,1.1E1,5.8E1,1.46E2,1.44E2,1.35E2,8.8E1,9.1E1,1.07E2,1.1E2,2E0,3.1E1],"tree_param":{"num_deleted":"0","num_feature":"3","num_nodes":"61","size_leaf_vector":"1"}},{"base_weights":[-1.285005E-2,-1.3300065E1,6.081295E0,-1.866283E1,-5.509818E0,2.6689265E0,1.2101112E1,-2.5114977E1,-1.5570266E1,-8.964412E0,-8.498785E-2,-3.2200127E0,9.7128E0,9.450779E0,1.4108222E1,-3.8390265E0,-2.4837282E0,-1.8667989E0,-1.4460101E0,-1.1103382E0,-6.515421E0,-1.0254035E0,1.3630353E1,-2.9930384E1,-1.24925E0,5.239035E0,1.3574933E1,8.5771364E-1,1.1212761E0,1.3996723E0,1.6637594E1,-7.794939E-1,-5.571199E-1,-2.4824393E0,1.295063E0,7.3326075E-1,1.8469603E0,-4.355012E0,-2.2790384E1,-5.8741264E0,1.8981105E0,-3.0189824E0,5.717238E0,1.4799532E1,4.2992406E0,1.6677645E0,2.0985637E0,-3.5329404E-1,-1.4995395E-1,4.2009417E-2,2.7031276E-1,-2.7724671E0,-1.6793405E0,-1.072264E0,-5.284118E-1,-3.0061528E-2,4.5456663E-1,3.7578627E-1,8.453618E-1,1.3363459E0,1.9253882E0,-4.475711E-1,5.524704E-1],"categories":[],"categories_nodes":[],"categories_segments":[],"categories_sizes":[],"default_left":[0,0,0,0,0,0,0,0,0,0,0,0,0,0,0,0,0,0,0,0,0,0,0,0,0,0,0,0,0,0,0,0,0,0,0,0,0,0,0,0,0,0,0,0,0,0,0,0,0,0,0,0,0,0,0,0,0,0,0,0,0,0,0],"id":2,"left_children":[1,3,5,7,9,11,13,15,17,19,21,23,25,27,29,-1,-1,-1,-1,-1,31,33,35,37,39,41,43,-1,-1,-1,45,-1,-1,47,49,-1,-1,-1,51,53,55,-1,57,59,61,-1,-1,-1,-1,-1,-1,-1,-1,-1,-1,-1,-1,-1,-1,-1,-1,-1,-1],"loss_changes":[1.7279888E5,2.7929727E4,3.002041E4,7.5305625E3,5.1529004E3,3.8815953E4,2.6806875E3,2.0232109E3,7.765469E2,4.6807227E2,1.4069738E3,2.6808906E4,7.289426E3,2.3940234E2,6.6866797E2,0E0,0E0,0E0,0E0,0E0,2.039917E1,3.480772E2,4.9440063E1,1.6639121E3,6.939878E3,3.314037E3,2.5262266E3,0E0,0E0,0E0,7.5585938E0,0E0,0E0,4.9588623E1,4.2691612E1,0E0,0E0,0E0,7.6674805E1,7.225713E2,1.4251239E3,0E0,8.9990625E2,1.2547305E3,2.1203802E2,0E0,0E0,0E0,0E0,0E0,0E0,0E0,0E0,0E0,0E0,0E0,0E0,0E0,0E0,0E0,0E0,0E0,0E0],"parents":[2147483647,0,0,1,1,2,2,3,3,4,4,5,5,6,6,7,7,8,8,9,9,10,10,11,11,12,12,13,13,14,14,20,20,21,21,22,22,23,23,24,24,25,25,26,26,30,30,33,33,34,34,38,38,39,39,40,40,42,42,43,43,44,44],"right_children":[2,4,6,8,10,12,14,16,18,20,22,24,26,28,30,-1,-1,-1,-1,-1,32,34,36,38,40,42,44,-1,-1,-1,46,-1,-1,48,50,-1,-1,-1,52,54,56,-1,58,60,62,-1,-1,-1,-1,-1,-1,-1,-1,-1,-1,-1,-1,-1,-1,-1,-1,-1,-1],"split_conditions":[2.2E1,1.162811E0,1.6362554E0,9.6596056E-1,1.3515813E0,4E1,1.7558911E0,7.446219E-1,1.0793936E0,1.2534354E0,1.605821E0,1.0670958E0,6.342086E-1,1.6899314E0,1.8281265E0,-3.8390265E0,-2.4837282E0,-1.8667989E0,-1.4460101E0,-1.1103382E0,1.3101187E0,1.4493263E0,6E0,5.5699027E-1,1.4060442E0,1.22E2,4.3E1,8.5771364E-1,1.1212761E0,1.3996723E0,1.894032E0,-7.794939E-1,-5.571199E-1,1.4060442E0,1.5029318E0,7.3326075E-1,1.8469603E0,-4.355012E0,9.031312E-1,1.2778639E0,1.5077851E0,-3.0189824E0,5.9785163E-1,6.8646175E-1,1.3257207E0,1.6677645E0,2.0985637E0,-3.5329404E-1,-1.4995395E-1,4.2009417E-2,2.7031276E-1,-2.7724671E0,-1.6793405E0,-1.072264E0,-5.284118E-1,-3.0061528E-2,4.5456663E-1,3.7578627E-1,8.453618E-1,1.3363459E0,1.9253882E0,-4.475711E-1,5.524704E-1],"split_indices":[1,2,2,2,2,1,2,2,2,2,2,2,2,2,2,0,0,0,0,0,2,2,0,2,2,0,1,0,0,0,2,0,0,2,2,0,0,0,2,2,2,0,2,2,2,0,0,0,0,0,0,0,0,0,0,0,0,0,0,0,0,0,0],"split_type":[0,0,0,0,0,0,0,0,0,0,0,0,0,0,0,0,0,0,0,0,0,0,0,0,0,0,0,0,0,0,0,0,0,0,0,0,0,0,0,0,0,0,0,0,0,0,0,0,0,0,0,0,0,0,0,0,0,0,0,0,0,0,0],"sum_hessian":[2.132E3,6.7E2,1.462E3,3.96E2,2.74E2,9.34E2,5.28E2,1.26E2,2.7E2,1.67E2,1.07E2,5.09E2,4.25E2,2.3E2,2.98E2,1.9E1,1.07E2,1.49E2,1.21E2,1.07E2,6E1,1.01E2,6E0,3.4E1,4.75E2,1.98E2,2.27E2,9E1,1.4E2,2.08E2,9E1,3.7E1,2.3E1,6.2E1,3.9E1,3E0,3E0,1.2E1,2.2E1,1.92E2,2.83E2,2E0,1.96E2,2E2,2.7E1,6.7E1,2.3E1,3.5E1,2.7E1,2.3E1,1.6E1,1.4E1,8E0,3.6E1,1.56E2,1.46E2,1.37E2,9.6E1,1E2,1.13E2,8.7E1,2E0,2.5E1],"tree_param":{"num_deleted":"0","num_feature":"3","num_nodes":"63","size_leaf_vector":"1"}},{"base_weights":[-1.6599769E-2,-1.1875828E1,5.4226065E0,-1.6454782E1,-4.574269E0,2.3343115E0,1.0743699E1,-2.3108397E1,-1.3984973E1,-7.6383295E0,9.52681E-2,-2.9868526E0,8.681483E0,9.05302E0,1.3374374E1,-4.3064156E0,-2.176198E1,-1.6874188E0,-1.2641205E0,-9.460989E-1,-5.42451E0,-8.598591E-1,1.1664277E1,-2.5924911E1,-1.1179783E0,3.7452374E0,1.1551555E1,7.5225306E0,1.1078165E0,1.3598406E0,1.7674408E0,-2.7346172E0,-2.1703947E0,-6.411704E-1,-4.4996688E-1,-2.133574E0,1.0085242E0,6.610874E-1,1.6971192E0,-3.9201627E0,-1.9770084E1,-4.1546745E0,2.47476E0,-2.8012712E0,4.2947884E0,1.2329968E1,3.5233111E0,7.321242E-1,8.8542503E-1,-2.9812098E-1,-1.299914E-1,2.963959E-2,2.1484599E-1,-2.4925592E0,-1.5178354E0,-6.422206E-1,-2.107899E-1,1.2856206E-1,5.0088245E-1,1.7605168E-1,5.847185E-1,1.0116256E0,1.6200042E0,-4.152949E-1,4.6843073E-1],"categories":[],"categories_nodes":[],"categories_segments":[],"categories_sizes":[],"default_left":[0,0,0,0,0,0,0,0,0,0,0,0,0,0,0,0,0,0,0,0,0,0,0,0,0,0,0,0,0,0,0,0,0,0,0,0,0,0,0,0,0,0,0,0,0,0,0,0,0,0,0,0,0,0,0,0,0,0,0,0,0,0,0,0,0],"id":3,"left_children":[1,3,5,7,9,11,13,15,17,19,21,23,25,27,29,-1,31,-1,-1,-1,33,35,37,39,41,43,45,47,-1,-1,-1,-1,-1,-1,-1,49,51,-1,-1,-1,53,55,57,-1,59,61,63,-1,-1,-1,-1,-1,-1,-1,-1,-1,-1,-1,-1,-1,-1,-1,-1,-1,-1],"loss_changes":[1.3765311E5,2.2358617E4,2.401655E4,6.447289E3,3.7207417E3,3.1334744E4,2.2672969E3,1.6073984E3,9.4222656E2,3.3765527E2,1.1592167E3,2.1619531E4,5.949535E3,5.23125E2,2.8992578E2,0E0,1.1392969E2,0E0,0E0,0E0,1.0322754E1,2.329912E2,8.291162E1,1.6961328E3,5.116187E3,2.6687065E3,1.6251211E3,1.8603516E1,0E0,0E0,0E0,0E0,0E0,0E0,0E0,3.0329224E1,2.8179588E1,0E0,0E0,0E0,1.6493262E2,9.871548E2,5.9064404E2,0E0,4.5039453E2,1.7748945E3,1.6519168E2,0E0,0E0,0E0,0E0,0E0,0E0,0E0,0E0,0E0,0E0,0E0,0E0,0E0,0E0,0E0,0E0,0E0,0E0],"parents":[2147483647,0,0,1,1,2,2,3,3,4,4,5,5,6,6,7,7,8,8,9,9,10,10,11,11,12,12,13,13,14,14,16,16,20,20,21,21,22,22,23,23,24,24,25,25,26,26,27,27,35,35,36,36,40,40,41,41,42,42,44,44,45,45,46,46],"right_children":[2,4,6,8,10,12,14,16,18,20,22,24,26,28,30,-1,32,-1,-1,-1,34,36,38,40,42,44,46,48,-1,-1,-1,-1,-1,-1,-1,50,52,-1,-1,-1,54,56,58,-1,60,62,64,-1,-1,-1,-1,-1,-1,-1,-1,-1,-1,-1,-1,-1,-1,-1,-1,-1,-1],"split_conditions":[2.2E1,1.1722289E0,1.6307406E0,9.323554E-1,1.3607407E0,4E1,1.7842197E0,5.5699027E-1,1.0864369E0,1.2660681E0,1.5537149E0,1.1084588E0,6.184472E-1,1.7221735E0,1.8747686E0,-4.3064156E0,8.3649486E-1,-1.6874188E0,-1.2641205E0,-9.460989E-1,1.3257207E0,1.4467901E0,8E0,5.5699027E-1,1.4493263E0,1.22E2,4.3E1,1.6743047E0,1.1078165E0,1.3598406E0,1.7674408E0,-2.7346172E0,-2.1703947E0,-6.411704E-1,-4.4996688E-1,1.4118102E0,1.497822E0,6.610874E-1,1.6971192E0,-3.9201627E0,9.031312E-1,1.3563259E0,1.5537149E0,-2.8012712E0,5.764168E-1,6.6411215E-1,1.3257207E0,7.321242E-1,8.8542503E-1,-2.9812098E-1,-1.299914E-1,2.963959E-2,2.1484599E-1,-2.4925592E0,-1.5178354E0,-6.422206E-1,-2.107899E-1,1.2856206E-1,5.0088245E-1,1.7605168E-1,5.847185E-1,1.0116256E0,1.6200042E0,-4.152949E-1,4.6843073E-1],"split_indices":[1,2,2,2,2,1,2,2,2,2,2,2,2,2,2,0,2,0,0,0,2,2,0,2,2,0,1,2,0,0,0,0,0,0,0,2,2,0,0,0,2,2,2,0,2,2,2,0,0,0,0,0,0,0,0,0,0,0,0,0,0,0,0,0,0],"split_type":[0,0,0,0,0,0,0,0,0,0,0,0,0,0,0,0,0,0,0,0,0,0,0,0,0,0,0,0,0,0,0,0,0,0,0,0,0,0,0,0,0,0,0,0,0,0,0,0,0,0,0,0,0,0,0,0,0,0,0,0,0,0,0,0,0],"sum_hessian":[2.132E3,6.7E2,1.462E3,4.11E2,2.59E2,9.26E2,5.36E2,1.09E2,3.02E2,1.56E2,1.03E2,5.04E2,4.22E2,3.29E2,2.07E2,6E0,1.03E2,1.74E2,1.28E2,1.02E2,5.4E1,9.6E1,7E0,3.7E1,4.67E2,1.56E2,2.66E2,1.47E2,1.82E2,1.67E2,4E1,2.9E1,7.4E1,3.6E1,1.8E1,5.7E1,3.9E1,4E0,3E0,1.2E1,2.5E1,2.53E2,2.14E2,2E0,1.54E2,2.42E2,2.4E1,7.4E1,7.3E1,3.3E1,2.4E1,2.3E1,1.6E1,1.4E1,1.1E1,1.39E2,1.14E2,1.35E2,7.9E1,4.6E1,1.08E2,1.16E2,1.26E2,2E0,2.2E1],"tree_param":{"num_deleted":"0","num_feature":"3","num_nodes":"65","size_leaf_vector":"1"}},{"base_weights":[-2.1219192E-2,-1.0609127E1,4.8349037E0,-1.5220405E1,-4.786219E0,2.2691302E0,9.956543E0,-2.1014662E1,-1.2999765E1,-7.5343885E0,-1.5502323E-1,-2.206904E0,7.659498E0,8.630224E0,1.2300416E1,-3.9071324E0,-1.9694336E1,-1.5946641E0,-1.2313408E0,-9.547966E-1,-5.8446712E0,-9.2414886E-1,1.1513883E1,-2.332928E1,-5.874729E-1,2.9442284E0,9.828454E0,8.034192E-1,1.0317446E0,1.2633692E0,1.6977979E0,-2.3924527E0,-1.9254476E0,-6.94869E-1,-4.8945734E-1,-2.2077227E0,8.648673E-1,6.201395E-1,1.5594345E0,-3.5287333E0,-1.7785776E1,-3.5094302E0,2.9318185E0,-2.5992599E0,3.5052056E0,1.0741058E1,4.357497E0,-3.180665E-1,-1.545715E-1,2.9502671E-2,2.4894854E-1,-2.240911E0,-1.3673311E0,-5.594143E-1,-1.5397468E-1,1.6965075E-1,5.5082965E-1,7.639354E-2,4.6179244E-1,8.400606E-1,1.4130431E0,5.418099E-1,-2.0063902E-1],"categories":[],"categories_nodes":[],"categories_segments":[],"categories_sizes":[],"default_left":[0,0,0,0,0,0,0,0,0,0,0,0,0,0,0,0,0,0,0,0,0,0,0,0,0,0,0,0,0,0,0,0,0,0,0,0,0,0,0,0,0,0,0,0,0,0,0,0,0,0,0,0,0,0,0,0,0,0,0,0,0,0,0],"id":4,"left_children":[1,3,5,7,9,11,13,15,17,19,21,23,25,27,29,-1,31,-1,-1,-1,33,35,37,39,41,43,45,-1,-1,-1,-1,-1,-1,-1,-1,47,49,-1,-1,-1,51,53,55,-1,57,59,61,-1,-1,-1,-1,-1,-1,-1,-1,-1,-1,-1,-1,-1,-1,-1,-1],"loss_changes":[1.09722016E5,1.7944203E4,1.920264E4,4.539047E3,3.7915708E3,2.3565314E4,1.4109062E3,1.3229141E3,6.010664E2,3.5675586E2,1.0158242E3,1.8252424E4,4.501717E3,2.7316016E2,1.8357617E2,0E0,4.69375E1,0E0,0E0,0E0,3.513745E1,2.4532083E2,3.480487E1,1.3772832E3,5.121049E3,2.2177593E3,1.4660215E3,0E0,0E0,0E0,0E0,0E0,0E0,0E0,0E0,3.1174652E1,3.7650547E1,0E0,0E0,0E0,1.3018262E2,9.357175E2,6.5772034E2,0E0,2.941792E2,1.6877031E3,1.9137E2,0E0,0E0,0E0,0E0,0E0,0E0,0E0,0E0,0E0,0E0,0E0,0E0,0E0,0E0,0E0,0E0],"parents":[2147483647,0,0,1,1,2,2,3,3,4,4,5,5,6,6,7,7,8,8,9,9,10,10,11,11,12,12,13,13,14,14,16,16,20,20,21,21,22,22,23,23,24,24,25,25,26,26,35,35,36,36,40,40,41,41,42,42,44,44,45,45,46,46],"right_children":[2,4,6,8,10,12,14,16,18,20,22,24,26,28,30,-1,32,-1,-1,-1,34,36,38,40,42,44,46,-1,-1,-1,-1,-1,-1,-1,-1,48,50,-1,-1,-1,52,54,56,-1,58,60,62,-1,-1,-1,-1,-1,-1,-1,-1,-1,-1,-1,-1,-1,-1,-1,-1],"split_conditions":[2.2E1,1.1527727E0,1.662069E0,9.232377E-1,1.3482263E0,4E1,1.7961224E0,5.5699027E-1,1.0453902E0,1.222626E0,1.605821E0,1.1084588E0,6.1311466E-1,1.7337887E0,1.894032E0,-3.9071324E0,8.474446E-1,-1.5946641E0,-1.2313408E0,-9.547966E-1,1.2895067E0,1.4418961E0,6E0,5.5699027E-1,1.4627604E0,1.22E2,4.3E1,8.034192E-1,1.0317446E0,1.2633692E0,1.6977979E0,-2.3924527E0,-1.9254476E0,-6.94869E-1,-4.8945734E-1,1.3951643E0,1.5136629E0,6.201395E-1,1.5594345E0,-3.5287333E0,9.031312E-1,1.3635798E0,1.5799166E0,-2.5992599E0,5.698652E-1,6.56375E-1,1.15E2,-3.180665E-1,-1.545715E-1,2.9502671E-2,2.4894854E-1,-2.240911E0,-1.3673311E0,-5.594143E-1,-1.5397468E-1,1.6965075E-1,5.5082965E-1,7.639354E-2,4.6179244E-1,8.400606E-1,1.4130431E0,5.418099E-1,-2.0063902E-1],"split_indices":[1,2,2,2,2,1,2,2,2,2,2,2,2,2,2,0,2,0,0,0,2,2,0,2,2,0,1,0,0,0,0,0,0,0,0,2,2,0,0,0,2,2,2,0,2,2,0,0,0,0,0,0,0,0,0,0,0,0,0,0,0,0,0],"split_type":[0,0,0,0,0,0,0,0,0,0,0,0,0,0,0,0,0,0,0,0,0,0,0,0,0,0,0,0,0,0,0,0,0,0,0,0,0,0,0,0,0,0,0,0,0,0,0,0,0,0,0,0,0,0,0,0,0,0,0,0,0,0,0],"sum_hessian":[2.132E3,6.7E2,1.462E3,3.73E2,2.97E2,9.75E2,4.87E2,1.01E2,2.72E2,1.86E2,1.11E2,5.33E2,4.42E2,3.14E2,1.73E2,6E0,9.5E1,1.27E2,1.45E2,1.03E2,8.3E1,1.05E2,6E0,3.7E1,4.96E2,1.4E2,3.02E2,1.39E2,1.75E2,1.5E2,2.3E1,3.7E1,5.8E1,5.5E1,2.8E1,6.1E1,4.4E1,3E0,3E0,1.2E1,2.5E1,2.71E2,2.25E2,2E0,1.38E2,2.58E2,4.4E1,3E1,3.1E1,3.2E1,1.2E1,1.4E1,1.1E1,1.5E2,1.21E2,1.39E2,8.6E1,3E1,1.08E2,1.15E2,1.43E2,4E1,4E0],"tree_param":{"num_deleted":"0","num_feature":"3","num_nodes":"63","size_leaf_vector":"1"}},{"base_weights":[-2.5019992E-2,-9.478224E0,4.310677E0,-1.4417508E1,-5.093482E0,1.8034831E0,8.518174E0,-2.3309021E1,-1.3222822E1,-7.430251E0,-2.9756668E-1,-2.5034947E0,6.9162893E0,6.4857316E0,9.976959E0,-3.6962066E0,-2.2126424E0,-1.6861575E0,-1.2623532E0,-9.320747E-1,-5.6831117E0,-1.0261595E0,9.848855E0,-2.0264494E1,-9.115462E-1,3.752793E0,9.943988E0,5.957617E-1,7.7505386E-1,9.8650706E-1,1.1995927E1,-6.6770226E-1,-4.7534722E-1,-2.2305741E0,5.4331565E-1,5.582443E-1,1.4329201E0,-3.0775752E0,-1.496592E1,-4.121558E0,1.1365097E0,-2.4118166E0,4.115693E0,1.0749244E1,2.4276955E0,1.2167366E0,1.6006825E0,-3.1924254E-1,-1.654004E-1,-2.719574E-2,1.4945309E-1,-1.9499578E0,-1.2240242E0,-6.906823E-1,-3.6334023E-1,-4.5134734E-2,2.9496223E-1,2.027481E-1,5.7214963E-1,9.8505336E-1,1.4477217E0,-3.7087715E-1,3.4449905E-1],"categories":[],"categories_nodes":[],"categories_segments":[],"categories_sizes":[],"default_left":[0,0,0,0,0,0,0,0,0,0,0,0,0,0,0,0,0,0,0,0,0,0,0,0,0,0,0,0,0,0,0,0,0,0,0,0,0,0,0,0,0,0,0,0,0,0,0,0,0,0,0,0,0,0,0,0,0,0,0,0,0,0,0],"id":5,"left_children":[1,3,5,7,9,11,13,15,17,19,21,23,25,27,29,-1,-1,-1,-1,-1,31,33,35,37,39,41,43,-1,-1,-1,45,-1,-1,47,49,-1,-1,-1,51,53,55,-1,57,59,61,-1,-1,-1,-1,-1,-1,-1,-1,-1,-1,-1,-1,-1,-1,-1,-1,-1,-1],"loss_changes":[8.746448E4,1.4458738E4,1.5417842E4,3.0378984E3,3.998669E3,2.0232357E4,1.554125E3,4.1695703E2,8.4641797E2,4.4850586E2,8.824345E2,1.4090552E4,3.9854883E3,1.1403516E2,4.3741992E2,0E0,0E0,0E0,0E0,0E0,3.596167E1,2.1103508E2,5.907538E1,1.3526465E3,3.0222808E3,2.048578E3,1.2691504E3,0E0,0E0,0E0,2.4180664E1,0E0,0E0,2.7338776E1,3.299295E1,0E0,0E0,0E0,9.767139E1,2.8754517E2,6.954735E2,0E0,5.293335E2,7.133828E2,1.08458145E2,0E0,0E0,0E0,0E0,0E0,0E0,0E0,0E0,0E0,0E0,0E0,0E0,0E0,0E0,0E0,0E0,0E0,0E0],"parents":[2147483647,0,0,1,1,2,2,3,3,4,4,5,5,6,6,7,7,8,8,9,9,10,10,11,11,12,12,13,13,14,14,20,20,21,21,22,22,23,23,24,24,25,25,26,26,30,30,33,33,34,34,38,38,39,39,40,40,42,42,43,43,44,44],"right_children":[2,4,6,8,10,12,14,16,18,20,22,24,26,28,30,-1,-1,-1,-1,-1,32,34,36,38,40,42,44,-1,-1,-1,46,-1,-1,48,50,-1,-1,-1,52,54,56,-1,58,60,62,-1,-1,-1,-1,-1,-1,-1,-1,-1,-1,-1,-1,-1,-1,-1,-1,-1,-1],"split_conditions":[2.2E1,1.1135982E0,1.6232302E0,8.3649486E-1,1.3360648E0,4E1,1.7496059E0,4.4122273E-1,9.907592E-1,1.2013113E0,1.5537149E0,1.1665441E0,6.3726246E-1,1.6850235E0,1.8281265E0,-3.6962066E0,-2.2126424E0,-1.6861575E0,-1.2623532E0,-9.320747E-1,1.2778639E0,1.4318085E0,8E0,7.160503E-1,1.3951643E0,1.22E2,4.3E1,5.957617E-1,7.7505386E-1,9.8650706E-1,1.9455992E0,-6.6770226E-1,-4.7534722E-1,1.3775419E0,1.481015E0,5.582443E-1,1.4329201E0,-3.0775752E0,9.031312E-1,1.2954092E0,1.497822E0,-2.4118166E0,5.855604E-1,6.939848E-1,1.3257207E0,1.2167366E0,1.6006825E0,-3.1924254E-1,-1.654004E-1,-2.719574E-2,1.4945309E-1,-1.9499578E0,-1.2240242E0,-6.906823E-1,-3.6334023E-1,-4.5134734E-2,2.9496223E-1,2.027481E-1,5.7214963E-1,9.8505336E-1,1.4477217E0,-3.7087715E-1,3.4449905E-1],"split_indices":[1,2,2,2,2,1,2,2,2,2,2,2,2,2,2,0,0,0,0,0,2,2,0,2,2,0,1,0,0,0,2,0,0,2,2,0,0,0,2,2,2,0,2,2,2,0,0,0,0,0,0,0,0,0,0,0,0,0,0,0,0,0,0],"split_type":[0,0,0,0,0,0,0,0,0,0,0,0,0,0,0,0,0,0,0,0,0,0,0,0,0,0,0,0,0,0,0,0,0,0,0,0,0,0,0,0,0,0,0,0,0,0,0,0,0,0,0,0,0,0,0,0,0,0,0,0,0,0,0],"sum_hessian":[2.132E3,6.7E2,1.462E3,3.14E2,3.56E2,9.17E2,5.45E2,3.5E1,2.79E2,2.39E2,1.17E2,4.98E2,4.19E2,2.3E2,3.15E2,5E0,3E1,1.07E2,1.72E2,1.4E2,9.9E1,1.1E2,7E0,4E1,4.58E2,2.06E2,2.13E2,9.8E1,1.32E2,2.25E2,9E1,6.9E1,3E1,6.2E1,4.8E1,4E0,3E0,1.4E1,2.6E1,1.78E2,2.8E2,2E0,2.04E2,1.92E2,2.1E1,7.5E1,1.5E1,2.9E1,3.3E1,2.5E1,2.3E1,1.2E1,1.4E1,4.3E1,1.35E2,1.42E2,1.38E2,7.1E1,1.33E2,1.21E2,7.1E1,2E0,1.9E1],"tree_param":{"num_deleted":"0","num_feature":"3","num_nodes":"63","size_leaf_vector":"1"}},{"base_weights":[-2.719625E-2,-8.466818E0,3.8436263E0,-1.2572794E1,-4.2364E0,1.6015505E0,7.6062307E0,-1.8806057E1,-1.116993E1,-6.3484945E0,-1.4179477E-1,-2.2468271E0,6.169976E0,6.454913E0,9.712319E0,-3.3630207E0,-1.8555822E0,-1.3913168E0,-1.0581158E0,-7.2827945E0,-4.698715E0,-7.8008854E-1,9.726423E0,-2.0226774E1,-9.714844E-1,3.4359355E0,8.993514E0,5.249899E0,7.8825325E-1,9.987523E-1,1.3697076E0,-8.333631E-1,-6.7852366E-1,-5.4522747E-1,-3.7493783E-1,-1.6667813E0,9.6645105E-1,5.245391E-1,1.3166695E0,-2.8690908E0,-1.6621113E0,-4.0340424E0,9.633395E-1,-2.2378905E0,3.7595837E0,9.757072E0,2.163891E0,5.208608E-1,6.191365E-1,-2.5059006E-1,-9.88291E-2,5.6330323E-2,2.2908124E-1,-9.258904E-1,-3.698061E-1,-5.9993647E-2,2.5043517E-1,2.3638818E-1,5.669892E-1,9.0802896E-1,1.3199353E0,-3.4413144E-1,3.090976E-1],"categories":[],"categories_nodes":[],"categories_segments":[],"categories_sizes":[],"default_left":[0,0,0,0,0,0,0,0,0,0,0,0,0,0,0,0,0,0,0,0,0,0,0,0,0,0,0,0,0,0,0,0,0,0,0,0,0,0,0,0,0,0,0,0,0,0,0,0,0,0,0,0,0,0,0,0,0,0,0,0,0,0,0],"id":6,"left_children":[1,3,5,7,9,11,13,15,17,19,21,23,25,27,29,-1,-1,-1,-1,31,33,35,37,39,41,43,45,47,-1,-1,-1,-1,-1,-1,-1,49,51,-1,-1,-1,-1,53,55,-1,57,59,61,-1,-1,-1,-1,-1,-1,-1,-1,-1,-1,-1,-1,-1,-1,-1,-1],"loss_changes":[6.9713984E4,1.1602008E4,1.232975E4,2.763039E3,2.8702993E3,1.6153246E4,1.2612383E3,7.044883E2,5.318906E2,3.0334473E2,7.256532E2,1.1422717E4,3.2113584E3,3.187334E2,1.5312695E2,0E0,0E0,0E0,0E0,1.0404297E1,1.7064331E1,1.6886443E2,2.4472717E1,6.025879E2,2.771099E3,1.7564578E3,1.0531406E3,3.1293945E0,0E0,0E0,0E0,0E0,0E0,0E0,0E0,3.312114E1,1.7883362E1,0E0,0E0,0E0,0E0,4.7475952E2,5.902155E2,0E0,4.8549048E2,5.140078E2,9.065407E1,0E0,0E0,0E0,0E0,0E0,0E0,0E0,0E0,0E0,0E0,0E0,0E0,0E0,0E0,0E0,0E0],"parents":[2147483647,0,0,1,1,2,2,3,3,4,4,5,5,6,6,7,7,8,8,9,9,10,10,11,11,12,12,13,13,14,14,19,19,20,20,21,21,22,22,23,23,24,24,25,25,26,26,27,27,35,35,36,36,41,41,42,42,44,44,45,45,46,46],"right_children":[2,4,6,8,10,12,14,16,18,20,22,24,26,28,30,-1,-1,-1,-1,32,34,36,38,40,42,44,46,48,-1,-1,-1,-1,-1,-1,-1,50,52,-1,-1,-1,-1,54,56,-1,58,60,62,-1,-1,-1,-1,-1,-1,-1,-1,-1,-1,-1,-1,-1,-1,-1,-1],"split_conditions":[2.2E1,1.1326525E0,1.6232302E0,8.764849E-1,1.3439244E0,4E1,1.7902505E0,4.4122273E-1,1.0156263E0,1.222626E0,1.605821E0,1.0367777E0,6.402204E-1,1.7169634E0,1.894032E0,-3.3630207E0,-1.8555822E0,-1.3913168E0,-1.0581158E0,1.1880405E0,1.3002357E0,1.4565623E0,6E0,5.5699027E-1,1.3890214E0,1.22E2,4.3E1,1.6743047E0,7.8825325E-1,9.987523E-1,1.3697076E0,-8.333631E-1,-6.7852366E-1,-5.4522747E-1,-3.7493783E-1,1.4012625E0,1.5186676E0,5.245391E-1,1.3166695E0,-2.8690908E0,-1.6621113E0,1.2402537E0,1.4874828E0,-2.2378905E0,5.9986216E-1,6.9802505E-1,1.3257207E0,5.208608E-1,6.191365E-1,-2.5059006E-1,-9.88291E-2,5.6330323E-2,2.2908124E-1,-9.258904E-1,-3.698061E-1,-5.9993647E-2,2.5043517E-1,2.3638818E-1,5.669892E-1,9.0802896E-1,1.3199353E0,-3.4413144E-1,3.090976E-1],"split_indices":[1,2,2,2,2,1,2,2,2,2,2,2,2,2,2,0,0,0,0,2,2,2,0,2,2,0,1,2,0,0,0,0,0,0,0,2,2,0,0,0,0,2,2,0,2,2,2,0,0,0,0,0,0,0,0,0,0,0,0,0,0,0,0],"split_type":[0,0,0,0,0,0,0,0,0,0,0,0,0,0,0,0,0,0,0,0,0,0,0,0,0,0,0,0,0,0,0,0,0,0,0,0,0,0,0,0,0,0,0,0,0,0,0,0,0,0,0,0,0,0,0,0,0,0,0,0,0,0,0],"sum_hessian":[2.132E3,6.7E2,1.462E3,3.39E2,3.31E2,9.17E2,5.45E2,6E1,2.79E2,2.18E2,1.13E2,4.98E2,4.19E2,3.55E2,1.9E2,5E0,5.5E1,1.22E2,1.57E2,1.37E2,8.1E1,1.07E2,6E0,3.2E1,4.66E2,2.14E2,2.05E2,1.48E2,2.07E2,1.67E2,2.3E1,9.2E1,4.5E1,6.1E1,2E1,7.1E1,3.6E1,3E0,3E0,1.2E1,2E1,1.8E2,2.86E2,2E0,2.12E2,1.84E2,2.1E1,8.3E1,6.5E1,3.7E1,3.4E1,2.7E1,9E0,2E1,1.6E2,1.35E2,1.51E2,1.04E2,1.08E2,1.21E2,6.3E1,2E0,1.9E1],"tree_param":{"num_deleted":"0","num_feature":"3","num_nodes":"63","size_leaf_vector":"1"}},{"base_weights":[-2.842861E-2,-7.5633554E0,3.4274595E0,-1.1716E1,-4.1941166E0,1.3727326E0,6.7191606E0,-1.9931097E1,-1.0797052E1,-6.1143775E0,-3.9650956E-1,-2.1716511E0,5.5187473E0,5.2263894E0,8.091376E0,-3.059869E0,-1.8401649E0,-1.3731742E0,-1.028599E0,-7.564715E-1,-4.729826E0,-9.787111E-1,8.313302E0,-1.8176128E1,-1.0061139E0,3.1570263E0,8.231217E0,4.8213276E-1,6.392362E-1,7.5308576E0,1.1047821E0,-5.705133E-1,-4.3434632E-1,-2.023576E0,3.606222E-1,4.7093588E-1,1.2098504E0,-2.582611E0,-1.4908803E0,-3.6692004E0,6.714195E-1,-2.0765069E0,3.4448798E0,8.876364E0,1.4658364E0,7.580811E-1,8.815715E-1,-2.9263398E-1,-1.549156E-1,-4.044137E-2,1.1139107E-1,-7.9087245E-1,-3.2949296E-1,-7.1826756E-2,1.9128516E-1,2.225754E-1,5.261633E-1,8.396935E-1,1.209942E0,-3.1931472E-1,2.38253E-1],"categories":[],"categories_nodes":[],"categories_segments":[],"categories_sizes":[],"default_left":[0,0,0,0,0,0,0,0,0,0,0,0,0,0,0,0,0,0,0,0,0,0,0,0,0,0,0,0,0,0,0,0,0,0,0,0,0,0,0,0,0,0,0,0,0,0,0,0,0,0,0,0,0,0,0,0,0,0,0,0,0],"id":7,"left_children":[1,3,5,7,9,11,13,15,17,19,21,23,25,27,29,-1,-1,-1,-1,-1,31,33,35,37,39,41,43,-1,-1,45,-1,-1,-1,47,49,-1,-1,-1,-1,51,53,-1,55,57,59,-1,-1,-1,-1,-1,-1,-1,-1,-1,-1,-1,-1,-1,-1,-1,-1],"loss_changes":[5.556895E4,9.338996E3,9.885846E3,2.0495742E3,2.7103467E3,1.3266936E4,1.108916E3,2.2626953E2,5.440488E2,2.6749316E2,6.470654E2,9.06612E3,2.6389502E3,1.1659082E2,2.6918945E2,0E0,0E0,0E0,0E0,0E0,1.7324951E1,1.6726105E2,4.226172E1,4.9722754E2,2.0351381E3,1.5074656E3,8.293672E2,0E0,0E0,1.8585938E1,0E0,0E0,0E0,2.3139496E1,2.6433285E1,0E0,0E0,0E0,0E0,3.7718726E2,4.1134064E2,0E0,4.2709204E2,3.657881E2,6.508554E1,0E0,0E0,0E0,0E0,0E0,0E0,0E0,0E0,0E0,0E0,0E0,0E0,0E0,0E0,0E0,0E0],"parents":[2147483647,0,0,1,1,2,2,3,3,4,4,5,5,6,6,7,7,8,8,9,9,10,10,11,11,12,12,13,13,14,14,20,20,21,21,22,22,23,23,24,24,25,25,26,26,29,29,33,33,34,34,39,39,40,40,42,42,43,43,44,44],"right_children":[2,4,6,8,10,12,14,16,18,20,22,24,26,28,30,-1,-1,-1,-1,-1,32,34,36,38,40,42,44,-1,-1,46,-1,-1,-1,48,50,-1,-1,-1,-1,52,54,-1,56,58,60,-1,-1,-1,-1,-1,-1,-1,-1,-1,-1,-1,-1,-1,-1,-1,-1],"split_conditions":[2.2E1,1.1026236E0,1.6136652E0,7.9107636E-1,1.3176486E0,4E1,1.760081E0,4.4122273E-1,9.811309E-1,1.1969385E0,1.5537149E0,1.0367777E0,6.4347357E-1,1.6951051E0,1.8590747E0,-3.059869E0,-1.8401649E0,-1.3731742E0,-1.028599E0,-7.564715E-1,1.2477884E0,1.4289274E0,8E0,5.5699027E-1,1.3841605E0,1.22E2,4.3E1,4.8213276E-1,6.392362E-1,1.8024017E0,1.1047821E0,-5.705133E-1,-4.3434632E-1,1.3682657E0,1.472248E0,4.7093588E-1,1.2098504E0,-2.582611E0,-1.4908803E0,1.2534354E0,1.481015E0,-2.0765069E0,6.043594E-1,7.0145756E-1,1.3257207E0,7.580811E-1,8.815715E-1,-2.9263398E-1,-1.549156E-1,-4.044137E-2,1.1139107E-1,-7.9087245E-1,-3.2949296E-1,-7.1826756E-2,1.9128516E-1,2.225754E-1,5.261633E-1,8.396935E-1,1.209942E0,-3.1931472E-1,2.38253E-1],"split_indices":[1,2,2,2,2,1,2,2,2,2,2,2,2,2,2,0,0,0,0,0,2,2,0,2,2,0,1,0,0,2,0,0,0,2,2,0,0,0,0,2,2,0,2,2,2,0,0,0,0,0,0,0,0,0,0,0,0,0,0,0,0],"split_type":[0,0,0,0,0,0,0,0,0,0,0,0,0,0,0,0,0,0,0,0,0,0,0,0,0,0,0,0,0,0,0,0,0,0,0,0,0,0,0,0,0,0,0,0,0,0,0,0,0,0,0,0,0,0,0,0,0,0,0,0,0],"sum_hessian":[2.132E3,6.7E2,1.462E3,2.99E2,3.71E2,9.01E2,5.61E2,2.8E1,2.71E2,2.46E2,1.25E2,4.86E2,4.15E2,2.71E2,2.9E2,5E0,2.3E1,1.06E2,1.65E2,1.48E2,9.8E1,1.18E2,7E0,3.2E1,4.54E2,2.23E2,1.92E2,1.31E2,1.4E2,2.33E2,5.7E1,5.2E1,4.6E1,6.6E1,5.2E1,4E0,3E0,1.2E1,2E1,1.75E2,2.79E2,2E0,2.21E2,1.75E2,1.7E1,1.33E2,1E2,2.9E1,3.7E1,2.5E1,2.7E1,2.4E1,1.51E2,1.26E2,1.53E2,1.13E2,1.08E2,1.21E2,5.4E1,2E0,1.5E1],"tree_param":{"num_deleted":"0","num_feature":"3","num_nodes":"61","size_leaf_vector":"1"}},{"base_weights":[-2.9257195E-2,-6.7567816E0,3.0563192E0,-1.0396135E1,-3.6772246E0,-2.3594406E0,3.2770174E0,-1.7944094E1,-9.574319E0,-5.3095527E0,-1.2757617E-1,1.7621908E0,6.415265E0,-2.7840443E0,-1.649406E0,-1.2050804E0,-8.268041E0,-6.101266E0,-3.9535856E0,-6.5743464E-1,8.216996E0,-9.596321E-1,4.9437885E0,5.6597147E0,8.148792E0,-9.545199E-1,-8.0890274E-1,-6.919014E-1,-5.6587017E-1,-4.6713278E-1,-3.2657802E-1,-1.3130474E0,9.1211796E-1,3.4318486E-1,1.0384687E0,-1.0593714E1,-1.4990413E-1,2.194956E0,6.24815E0,5.253154E-1,6.72849E-1,8.3561814E-1,1.187417E0,-2.0564197E-1,-7.315308E-2,5.564516E-2,1.9204585E-1,-1.5865804E0,-8.3069426E-1,-2.1310852E-1,2.157532E-1,-1.2677001E0,2.564231E-1,7.523108E-1,3.211827E-1],"categories":[],"categories_nodes":[],"categories_segments":[],"categories_sizes":[],"default_left":[0,0,0,0,0,0,0,0,0,0,0,0,0,0,0,0,0,0,0,0,0,0,0,0,0,0,0,0,0,0,0,0,0,0,0,0,0,0,0,0,0,0,0,0,0,0,0,0,0,0,0,0,0,0,0],"id":8,"left_children":[1,3,5,7,9,-1,11,13,15,17,19,21,23,-1,-1,-1,25,27,29,31,33,35,37,39,41,-1,-1,-1,-1,-1,-1,43,45,-1,-1,47,49,51,53,-1,-1,-1,-1,-1,-1,-1,-1,-1,-1,-1,-1,-1,-1,-1,-1],"loss_changes":[4.429809E4,7.4820664E3,8.1010254E3,1.7325312E3,2.1142021E3,0E0,6.8866055E3,2.1686133E2,4.786836E2,2.442627E2,5.182894E2,8.491295E3,5.7208984E2,0E0,0E0,0E0,2.5546875E0,6.588867E0,1.935437E1,1.14389725E2,1.8385223E1,4.1251333E3,1.606919E3,1.1929199E2,8.422949E1,0E0,0E0,0E0,0E0,0E0,0E0,2.792099E1,1.0416363E1,0E0,0E0,3.7409717E2,1.9126622E3,3.869004E2,6.8838574E2,0E0,0E0,0E0,0E0,0E0,0E0,0E0,0E0,0E0,0E0,0E0,0E0,0E0,0E0,0E0,0E0],"parents":[2147483647,0,0,1,1,2,2,3,3,4,4,6,6,7,7,8,8,9,9,10,10,11,11,12,12,16,16,17,17,18,18,19,19,20,20,21,21,22,22,23,23,24,24,31,31,32,32,35,35,36,36,37,37,38,38],"right_children":[2,4,6,8,10,-1,12,14,16,18,20,22,24,-1,-1,-1,26,28,30,32,34,36,38,40,42,-1,-1,-1,-1,-1,-1,44,46,-1,-1,48,50,52,54,-1,-1,-1,-1,-1,-1,-1,-1,-1,-1,-1,-1,-1,-1,-1,-1],"split_conditions":[2.2E1,1.1084588E0,4.7298616E-1,7.9107636E-1,1.3387815E0,-2.3594406E0,1.6694169E0,4.4122273E-1,9.987875E-1,1.2070723E0,1.605821E0,4E1,1.8083032E0,-2.7840443E0,-1.649406E0,-1.2050804E0,1.0508395E0,1.1764376E0,1.2849157E0,1.4627604E0,1.6812978E0,1.222626E0,6.157262E-1,1.7408787E0,1.9455992E0,-9.545199E-1,-8.0890274E-1,-6.919014E-1,-5.6587017E-1,-4.6713278E-1,-3.2657802E-1,1.4012625E0,1.5186676E0,3.4318486E-1,1.0384687E0,8.3649486E-1,1.4672064E0,1.22E2,4.3E1,5.253154E-1,6.72849E-1,8.3561814E-1,1.187417E0,-2.0564197E-1,-7.315308E-2,5.564516E-2,1.9204585E-1,-1.5865804E0,-8.3069426E-1,-2.1310852E-1,2.157532E-1,-1.2677001E0,2.564231E-1,7.523108E-1,3.211827E-1],"split_indices":[1,2,2,2,2,0,2,2,2,2,2,1,2,0,0,0,2,2,2,2,2,2,2,2,2,0,0,0,0,0,0,2,2,0,0,2,2,0,1,0,0,0,0,0,0,0,0,0,0,0,0,0,0,0,0],"split_type":[0,0,0,0,0,0,0,0,0,0,0,0,0,0,0,0,0,0,0,0,0,0,0,0,0,0,0,0,0,0,0,0,0,0,0,0,0,0,0,0,0,0,0,0,0,0,0,0,0,0,0,0,0,0,0],"sum_hessian":[2.132E3,6.7E2,1.462E3,3.06E2,3.64E2,1.2E1,1.45E3,2.8E1,2.78E2,2.49E2,1.15E2,9.79E2,4.71E2,5E0,2.3E1,1.23E2,1.55E2,1.55E2,9.4E1,1.09E2,6E0,5.28E2,4.51E2,3.31E2,1.4E2,8.5E1,7E1,1.11E2,4.4E1,6.5E1,2.9E1,7.7E1,3.2E1,2E0,4E0,4E1,4.88E2,1.46E2,3.05E2,1.4E2,1.91E2,1.25E2,1.5E1,3.9E1,3.8E1,2.3E1,9E0,1.5E1,2.5E1,2.64E2,2.24E2,1E0,1.45E2,2.5E2,5.5E1],"tree_param":{"num_deleted":"0","num_feature":"3","num_nodes":"55","size_leaf_vector":"1"}},{"base_weights":[-3.0589577E-2,-6.0379677E0,2.724695E0,-9.061383E0,-3.0679328E0,-1.9634144E1,2.9231377E0,-1.4154908E1,-8.064889E0,-4.4961786E0,8.4192365E-2,-2.1988974E0,-6.1163867E-1,1.3681537E0,5.3804555E0,-2.533083E0,-1.3740138E0,-1.014632E0,-7.1053257E0,-5.1743593E0,-3.1759613E0,-4.3237773E-1,7.525533E0,-1.3514847E0,4.4983454E0,4.3009653E0,6.565523E0,-8.3384514E-1,-7.012782E-1,-5.996027E-1,-4.86007E-1,-3.7672937E-1,-2.575897E-1,-1.0255318E0,8.2095593E-1,3.9713326E-1,1.0274476E0,-9.628027E0,-5.925506E-1,2.668276E0,6.7273107E0,3.9906374E-1,5.2743375E-1,6.1175504E0,9.112947E-1,-1.5417512E-1,-4.957917E-2,5.918482E-2,2.1222514E-1,-1.4256842E0,-7.539229E-1,-2.5742927E-1,7.5657E-2,-1.1991358E0,3.0041537E-1,7.893875E-1,1.0811007E-1,6.206088E-1,7.188045E-1],"categories":[],"categories_nodes":[],"categories_segments":[],"categories_sizes":[],"default_left":[0,0,0,0,0,0,0,0,0,0,0,0,0,0,0,0,0,0,0,0,0,0,0,0,0,0,0,0,0,0,0,0,0,0,0,0,0,0,0,0,0,0,0,0,0,0,0,0,0,0,0,0,0,0,0,0,0,0,0],"id":9,"left_children":[1,3,5,7,9,11,13,15,17,19,21,-1,-1,23,25,-1,-1,-1,27,29,31,33,35,37,39,41,43,-1,-1,-1,-1,-1,-1,45,47,-1,-1,49,51,53,55,-1,-1,57,-1,-1,-1,-1,-1,-1,-1,-1,-1,-1,-1,-1,-1,-1,-1],"loss_changes":[3.5321945E4,5.997545E3,6.5486445E3,1.5709629E3,1.5310613E3,1.114502E1,5.537039E3,4.156914E2,2.866582E2,1.9307764E2,4.145591E2,0E0,0E0,7.58264E3,6.907119E2,0E0,0E0,0E0,1.2339844E1,1.3537598E1,1.1694763E1,7.592734E1,1.8353516E1,2.990499E3,1.6708223E3,8.6479004E1,1.6998633E2,0E0,0E0,0E0,0E0,0E0,0E0,1.4991684E1,9.236359E0,0E0,0E0,2.8581714E2,1.0130556E3,3.739209E2,6.0025586E2,0E0,0E0,5.6054688E0,0E0,0E0,0E0,0E0,0E0,0E0,0E0,0E0,0E0,0E0,0E0,0E0,0E0,0E0,0E0],"parents":[2147483647,0,0,1,1,2,2,3,3,4,4,5,5,6,6,7,7,8,8,9,9,10,10,13,13,14,14,18,18,19,19,20,20,21,21,22,22,23,23,24,24,25,25,26,26,33,33,34,34,37,37,38,38,39,39,40,40,43,43],"right_children":[2,4,6,8,10,12,14,16,18,20,22,-1,-1,24,26,-1,-1,-1,28,30,32,34,36,38,40,42,44,-1,-1,-1,-1,-1,-1,46,48,-1,-1,50,52,54,56,-1,-1,58,-1,-1,-1,-1,-1,-1,-1,-1,-1,-1,-1,-1,-1,-1,-1],"split_conditions":[2.2E1,1.127995E0,4.7298616E-1,8.6382717E-1,1.3563259E0,1.18E2,1.6136652E0,4.4122273E-1,1.0091323E0,1.2292513E0,1.605821E0,-2.1988974E0,-6.1163867E-1,4E1,1.7697555E0,-2.533083E0,-1.3740138E0,-1.014632E0,1.0567629E0,1.1822892E0,1.3060124E0,1.4627604E0,6E0,1.2139857E0,6.468315E-1,1.7061083E0,1.8675892E0,-8.3384514E-1,-7.012782E-1,-5.996027E-1,-4.86007E-1,-3.7672937E-1,-2.575897E-1,1.4165782E0,1.5290916E0,3.9713326E-1,1.0274476E0,8.3649486E-1,1.4118102E0,1.22E2,4.3E1,3.9906374E-1,5.2743375E-1,1.8113816E0,9.112947E-1,-1.5417512E-1,-4.957917E-2,5.918482E-2,2.1222514E-1,-1.4256842E0,-7.539229E-1,-2.5742927E-1,7.5657E-2,-1.1991358E0,3.0041537E-1,7.893875E-1,1.0811007E-1,6.206088E-1,7.188045E-1],"split_indices":[1,2,2,2,2,0,2,2,2,2,2,0,0,1,2,0,0,0,2,2,2,2,0,2,2,2,2,0,0,0,0,0,0,2,2,0,0,2,2,0,1,0,0,2,0,0,0,0,0,0,0,0,0,0,0,0,0,0,0],"split_type":[0,0,0,0,0,0,0,0,0,0,0,0,0,0,0,0,0,0,0,0,0,0,0,0,0,0,0,0,0,0,0,0,0,0,0,0,0,0,0,0,0,0,0,0,0,0,0,0,0,0,0,0,0,0,0,0,0,0,0],"sum_hessian":[2.132E3,6.7E2,1.462E3,3.31E2,3.39E2,1.2E1,1.45E3,5.2E1,2.79E2,2.33E2,1.06E2,1.1E1,1E0,8.89E2,5.61E2,5E0,4.7E1,1.14E2,1.65E2,1.52E2,8.1E1,1E2,6E0,4.76E2,4.13E2,2.96E2,2.65E2,7.8E1,8.7E1,9.4E1,5.8E1,5.6E1,2.5E1,6.8E1,3.2E1,3E0,3E0,3.9E1,4.37E2,2.28E2,1.85E2,1.47E2,1.49E2,2.17E2,4.8E1,3.9E1,2.9E1,2.7E1,5E0,1.5E1,2.4E1,1.83E2,2.54E2,1E0,2.27E2,1.68E2,1.7E1,1.33E2,8.4E1],"tree_param":{"num_deleted":"0","num_feature":"3","num_nodes":"59","size_leaf_vector":"1"}},{"base_weights":[-3.1350393E-2,-5.394795E0,2.4285967E0,-8.46027E0,-3.0392883E0,-1.381186E1,2.651852E0,-1.4629464E1,-7.7478485E0,-4.4165926E0,-2.8245568E-1,-1.9031999E0,-2.0537198E0,1.2442484E0,4.7586694E0,-2.304744E0,-1.3359859E0,-9.8908734E-1,-6.863369E0,-5.479275E-1,-3.4629638E0,-7.2420794E-1,6.434354E0,-5.389312E-2,-3.724493E-1,-1.2580038E0,4.1017756E0,3.5895898E0,5.664091E0,-7.896644E-1,-6.704263E-1,-4.1245568E-1,-3.0450705E-1,-1.5190032E0,2.2544739E-1,3.5834542E-1,9.4409215E-1,-7.397332E0,-5.4659575E-1,2.5362751E0,6.1655364E0,3.4106806E-1,4.290426E-1,5.528613E-1,6.8695297E0,-2.0775735E-1,-1.0525332E-1,-2.0432146E-2,1.00058325E-1,-1.1707954E0,-5.9623766E-1,-2.4665369E-1,3.792159E-2,-1.1342798E0,2.853603E-1,7.179741E-1,3.2330442E-2,6.9014394E-1,9.745858E-1],"categories":[],"categories_nodes":[],"categories_segments":[],"categories_sizes":[],"default_left":[0,0,0,0,0,0,0,0,0,0,0,0,0,0,0,0,0,0,0,0,0,0,0,0,0,0,0,0,0,0,0,0,0,0,0,0,0,0,0,0,0,0,0,0,0,0,0,0,0,0,0,0,0,0,0,0,0,0,0],"id":10,"left_children":[1,3,5,7,9,11,13,15,17,19,21,-1,23,25,27,-1,-1,-1,29,-1,31,33,35,-1,-1,37,39,41,43,-1,-1,-1,-1,45,47,-1,-1,49,51,53,55,-1,-1,-1,57,-1,-1,-1,-1,-1,-1,-1,-1,-1,-1,-1,-1,-1,-1],"loss_changes":[2.8155457E4,4.819408E3,5.341123E3,1.1656172E3,1.4454087E3,8.533618E2,4.2763535E3,1.7810254E2,2.6194824E2,1.3960693E2,3.84457E2,0E0,1.1252058E1,6.20443E3,5.914863E2,0E0,0E0,0E0,2.71875E0,0E0,1.3305664E1,9.167102E1,2.8359589E1,0E0,0E0,2.0181406E3,1.2928438E3,2.9432617E1,1.8091309E2,0E0,0E0,0E0,0E0,1.2603775E1,1.6406237E1,0E0,0E0,2.504021E2,6.4782245E2,3.351172E2,4.796787E2,0E0,0E0,0E0,4.621338E1,0E0,0E0,0E0,0E0,0E0,0E0,0E0,0E0,0E0,0E0,0E0,0E0,0E0,0E0],"parents":[2147483647,0,0,1,1,2,2,3,3,4,4,5,5,6,6,7,7,8,8,9,9,10,10,12,12,13,13,14,14,18,18,20,20,21,21,22,22,25,25,26,26,27,27,28,28,33,33,34,34,37,37,38,38,39,39,40,40,44,44],"right_children":[2,4,6,8,10,12,14,16,18,20,22,-1,24,26,28,-1,-1,-1,30,-1,32,34,36,-1,-1,38,40,42,44,-1,-1,-1,-1,46,48,-1,-1,50,52,54,56,-1,-1,-1,58,-1,-1,-1,-1,-1,-1,-1,-1,-1,-1,-1,-1,-1,-1],"split_conditions":[2.2E1,1.0949645E0,5.5699027E-1,7.9107636E-1,1.3143944E0,5.1E3,1.5989712E0,4.4122273E-1,9.6596056E-1,1.1907903E0,1.5537149E0,-1.9031999E0,7.4E3,4E1,1.744741E0,-2.304744E0,-1.3359859E0,-9.8908734E-1,1.0367777E0,-5.479275E-1,1.2534354E0,1.4209057E0,8E0,-5.389312E-2,-3.724493E-1,1.2613935E0,6.5018034E-1,1.6812978E0,1.8198335E0,-7.896644E-1,-6.704263E-1,-4.1245568E-1,-3.0450705E-1,1.3740772E0,1.4874828E0,3.5834542E-1,9.4409215E-1,1.0091323E0,1.3775419E0,1.22E2,4.3E1,3.4106806E-1,4.290426E-1,5.528613E-1,1.9455992E0,-2.0775735E-1,-1.0525332E-1,-2.0432146E-2,1.00058325E-1,-1.1707954E0,-5.9623766E-1,-2.4665369E-1,3.792159E-2,-1.1342798E0,2.853603E-1,7.179741E-1,3.2330442E-2,6.9014394E-1,9.745858E-1],"split_indices":[1,2,2,2,2,0,2,2,2,2,2,0,0,1,2,0,0,0,2,0,2,2,0,0,0,2,2,2,2,0,0,0,0,2,2,0,0,2,2,0,1,0,0,0,2,0,0,0,0,0,0,0,0,0,0,0,0,0,0],"split_type":[0,0,0,0,0,0,0,0,0,0,0,0,0,0,0,0,0,0,0,0,0,0,0,0,0,0,0,0,0,0,0,0,0,0,0,0,0,0,0,0,0,0,0,0,0,0,0,0,0,0,0,0,0,0,0,0,0,0,0],"sum_hessian":[2.132E3,6.7E2,1.462E3,2.9E2,3.8E2,1.9E1,1.443E3,2.8E1,2.62E2,2.53E2,1.27E2,1.4E1,5E0,8.66E2,5.77E2,5E0,2.3E1,9.8E1,1.64E2,1.48E2,1.05E2,1.2E2,7E0,3E0,2E0,4.62E2,4.04E2,2.54E2,3.23E2,9.3E1,7.1E1,6.5E1,4E1,6.5E1,5.5E1,4E0,3E0,4.7E1,4.15E2,2.31E2,1.73E2,1.22E2,1.32E2,2.25E2,9.8E1,3.6E1,2.9E1,3.5E1,2E1,1.5E1,3.2E1,1.41E2,2.74E2,1E0,2.3E2,1.6E2,1.3E1,8.3E1,1.5E1],"tree_param":{"num_deleted":"0","num_feature":"3","num_nodes":"59","size_leaf_vector":"1"}},{"base_weights":[-3.1569984E-2,-4.8206015E0,2.1649246E0,-7.0242066E0,-2.1849778E0,-1.2434292E1,2.3656306E0,-1.0818149E1,-6.119135E0,-3.3377693E0,1.9930743E-1,-1.7653254E0,-2.8870866E0,1.0924757E0,4.227874E0,-1.9643675E0,-1.0488664E0,-7.519482E-1,-5.6364685E-1,-3.8578365E0,-2.309062E0,-2.2234638E-1,7.477391E-1,-4.7562203E-1,-1.9026222E0,-1.185871E0,3.6613708E0,3.4638784E0,5.3786945E0,-4.532927E-1,-3.7579474E-1,-2.806443E-1,-2.0241618E-1,-7.4071985E-1,7.447088E-1,-4.952078E-2,-3.1948445E0,-4.798785E0,-2.0909715E-1,2.3127687E0,5.6208324E0,2.9972062E0,4.415206E-1,5.1027207E0,8.175425E-1,-1.1252828E-1,-4.072957E-2,4.769511E-2,2.0049189E-1,-4.1808653E-1,-1.00298874E-1,-8.952767E-1,-3.612005E-1,-1.0398026E-1,1.0448987E-1,-1.0729315E0,2.601585E-1,6.5492207E-1,1.2759987E-2,3.0368495E-1,3.5532683E-1,5.094573E-1,5.995131E-1],"categories":[],"categories_nodes":[],"categories_segments":[],"categories_sizes":[],"default_left":[0,0,0,0,0,0,0,0,0,0,0,0,0,0,0,0,0,0,0,0,0,0,0,0,0,0,0,0,0,0,0,0,0,0,0,0,0,0,0,0,0,0,0,0,0,0,0,0,0,0,0,0,0,0,0,0,0,0,0,0,0,0,0],"id":11,"left_children":[1,3,5,7,9,11,13,15,17,19,21,-1,23,25,27,-1,-1,-1,-1,29,31,33,-1,-1,35,37,39,41,43,-1,-1,-1,-1,45,47,-1,49,51,53,55,57,59,-1,61,-1,-1,-1,-1,-1,-1,-1,-1,-1,-1,-1,-1,-1,-1,-1,-1,-1,-1,-1],"loss_changes":[2.2447639E4,3.8817363E3,4.316223E3,1.1871348E3,8.444802E2,6.9478516E2,3.4189946E3,3.92188E2,1.883457E2,1.0183667E2,2.874341E2,0E0,2.0390396E0,5.031926E3,4.9659375E2,0E0,0E0,0E0,0E0,2.8046875E0,4.14093E0,4.867601E1,0E0,0E0,9.739592E0,1.6082205E3,1.054584E3,9.01167E1,1.0095703E2,0E0,0E0,0E0,0E0,6.481411E0,1.0634846E1,0E0,9.7551537E-1,4.6474976E2,3.1910928E2,2.959193E2,3.9065186E2,2.022461E0,0E0,9.999023E0,0E0,0E0,0E0,0E0,0E0,0E0,0E0,0E0,0E0,0E0,0E0,0E0,0E0,0E0,0E0,0E0,0E0,0E0,0E0],"parents":[2147483647,0,0,1,1,2,2,3,3,4,4,5,5,6,6,7,7,8,8,9,9,10,10,12,12,13,13,14,14,19,19,20,20,21,21,24,24,25,25,26,26,27,27,28,28,33,33,34,34,36,36,37,37,38,38,39,39,40,40,41,41,43,43],"right_children":[2,4,6,8,10,12,14,16,18,20,22,-1,24,26,28,-1,-1,-1,-1,30,32,34,-1,-1,36,38,40,42,44,-1,-1,-1,-1,46,48,-1,50,52,54,56,58,60,-1,62,-1,-1,-1,-1,-1,-1,-1,-1,-1,-1,-1,-1,-1,-1,-1,-1,-1,-1,-1],"split_conditions":[2.2E1,1.1461399E0,5.5699027E-1,8.835064E-1,1.3635798E0,1.18E2,1.595017E0,5.764168E-1,1.0367777E0,1.2477884E0,1.6506424E0,-1.7653254E0,5.1E3,4E1,1.779227E0,-1.9643675E0,-1.0488664E0,-7.519482E-1,-5.6364685E-1,1.1880405E0,1.3060124E0,1.4627604E0,7.477391E-1,-4.7562203E-1,7.4E3,1.3143944E0,6.53572E-1,1.7268423E0,1.894032E0,-4.532927E-1,-3.7579474E-1,-2.806443E-1,-2.0241618E-1,1.4165782E0,1.5290916E0,-4.952078E-2,7.6E3,1.162811E0,1.4769711E0,1.22E2,4.3E1,1.6812978E0,4.415206E-1,1.8145504E0,8.175425E-1,-1.1252828E-1,-4.072957E-2,4.769511E-2,2.0049189E-1,-4.1808653E-1,-1.00298874E-1,-8.952767E-1,-3.612005E-1,-1.0398026E-1,1.0448987E-1,-1.0729315E0,2.601585E-1,6.5492207E-1,1.2759987E-2,3.0368495E-1,3.5532683E-1,5.094573E-1,5.995131E-1],"split_indices":[1,2,2,2,2,0,2,2,2,2,2,0,0,1,2,0,0,0,0,2,2,2,0,0,0,2,2,2,2,0,0,0,0,2,2,0,0,2,2,0,1,2,0,2,0,0,0,0,0,0,0,0,0,0,0,0,0,0,0,0,0,0,0],"split_type":[0,0,0,0,0,0,0,0,0,0,0,0,0,0,0,0,0,0,0,0,0,0,0,0,0,0,0,0,0,0,0,0,0,0,0,0,0,0,0,0,0,0,0,0,0,0,0,0,0,0,0,0,0,0,0,0,0,0,0,0,0,0,0],"sum_hessian":[2.132E3,6.7E2,1.462E3,3.64E2,3.06E2,1.9E1,1.443E3,6.8E1,2.96E2,2.06E2,1E2,1.3E1,6E0,8.58E2,5.85E2,7E0,6.1E1,1.51E2,1.45E2,1.35E2,7.1E1,9.5E1,5E0,1E0,5E0,4.55E2,4.03E2,3.54E2,2.31E2,6.7E1,6.8E1,4E1,3.1E1,6.2E1,3.3E1,3E0,2E0,9.6E1,3.59E2,2.4E2,1.63E2,2.05E2,1.49E2,2.08E2,2.3E1,3.3E1,2.9E1,2.7E1,6E0,1E0,1E0,2.7E1,6.9E1,2.19E2,1.4E2,1E0,2.39E2,1.51E2,1.2E1,1.3E2,7.5E1,1.16E2,9.2E1],"tree_param":{"num_deleted":"0","num_feature":"3","num_nodes":"63","size_leaf_vector":"1"}},{"base_weights":[-3.09588E-2,-4.306301E0,1.9299337E0,-6.7056084E0,-2.3598E0,-1.4439368E1,2.0752618E0,-1.2553775E1,-6.1747E0,-3.3846817E0,-1.06416E-2,-2.011735E0,-1.1384823E0,9.0622973E-1,3.755573E0,-1.9199147E0,-1.1090256E0,-8.0855817E-1,-5.466044E0,-3.8890657E0,-2.5022147E0,-3.5733703E-1,6.2894325E0,-1.1768248E0,3.2014952E0,2.9695926E0,4.665537E0,-6.237037E-1,-5.212145E-1,-4.457166E-1,-3.6900714E-1,-3.0722547E-1,-2.215958E-1,-8.845802E-1,5.3869015E-1,2.848895E-1,8.0683637E-1,-7.1740947E0,-6.221684E-1,9.395821E-1,4.243958E0,2.7984726E-1,3.717037E-1,4.482952E0,7.92845E-1,-1.3550617E-1,-5.7584852E-2,3.404564E-2,1.9390982E-1,-1.0499159E0,-5.5176127E-1,-2.2030832E-1,1.5425684E-2,-1.0149013E0,1.18158534E-1,3.6403665E-1,6.084426E-1,4.4328025E-1,5.381709E-1],"categories":[],"categories_nodes":[],"categories_segments":[],"categories_sizes":[],"default_left":[0,0,0,0,0,0,0,0,0,0,0,0,0,0,0,0,0,0,0,0,0,0,0,0,0,0,0,0,0,0,0,0,0,0,0,0,0,0,0,0,0,0,0,0,0,0,0,0,0,0,0,0,0,0,0,0,0,0,0],"id":12,"left_children":[1,3,5,7,9,11,13,15,17,19,21,-1,-1,23,25,-1,-1,-1,27,29,31,33,35,37,39,41,43,-1,-1,-1,-1,-1,-1,45,47,-1,-1,49,51,53,55,-1,-1,57,-1,-1,-1,-1,-1,-1,-1,-1,-1,-1,-1,-1,-1,-1,-1],"loss_changes":[1.7890287E4,3.117917E3,3.5103242E3,8.539365E2,8.955945E2,1.5876221E1,2.84685E3,1.0495679E2,2.1434863E2,1.0555005E2,2.5124706E2,0E0,0E0,4.1012246E3,4.1169824E2,0E0,0E0,0E0,7.7539062E0,3.9638672E0,9.053467E0,5.1970757E1,6.0068207E0,1.4924272E3,9.5806055E2,4.8588623E1,1.0041748E2,0E0,0E0,0E0,0E0,0E0,0E0,8.279903E0,1.0949399E1,0E0,0E0,1.4997107E2,4.4706012E2,2.1521185E2,3.1955127E2,0E0,0E0,2.8693848E1,0E0,0E0,0E0,0E0,0E0,0E0,0E0,0E0,0E0,0E0,0E0,0E0,0E0,0E0,0E0],"parents":[2147483647,0,0,1,1,2,2,3,3,4,4,5,5,6,6,7,7,8,8,9,9,10,10,13,13,14,14,18,18,19,19,20,20,21,21,22,22,23,23,24,24,25,25,26,26,33,33,34,34,37,37,38,38,39,39,40,40,43,43],"right_children":[2,4,6,8,10,12,14,16,18,20,22,-1,-1,24,26,-1,-1,-1,28,30,32,34,36,38,40,42,44,-1,-1,-1,-1,-1,-1,46,48,-1,-1,50,52,54,56,-1,-1,58,-1,-1,-1,-1,-1,-1,-1,-1,-1,-1,-1,-1,-1,-1,-1],"split_conditions":[2.2E1,1.1026236E0,4.7298616E-1,7.731773E-1,1.3439244E0,4.4122273E-1,1.590031E0,4.4122273E-1,9.499871E-1,1.2070723E0,1.6506424E0,-2.011735E0,-1.1384823E0,4E1,1.766757E0,-1.9199147E0,-1.1090256E0,-8.0855817E-1,1.0508395E0,1.1665441E0,1.2660681E0,1.4493263E0,2E0,1.2013113E0,6.095276E-1,1.7061083E0,1.9455992E0,-6.237037E-1,-5.212145E-1,-4.457166E-1,-3.6900714E-1,-3.0722547E-1,-2.215958E-1,1.3951643E0,1.542443E0,2.848895E-1,8.0683637E-1,8.3649486E-1,1.3682657E0,1.22E2,6.808694E-1,2.7984726E-1,3.717037E-1,1.813477E0,7.92845E-1,-1.3550617E-1,-5.7584852E-2,3.404564E-2,1.9390982E-1,-1.0499159E0,-5.5176127E-1,-2.2030832E-1,1.5425684E-2,-1.0149013E0,1.18158534E-1,3.6403665E-1,6.084426E-1,4.4328025E-1,5.381709E-1],"split_indices":[1,2,2,2,2,2,2,2,2,2,2,0,0,1,2,0,0,0,2,2,2,2,0,2,2,2,2,0,0,0,0,0,0,2,2,0,0,2,2,0,2,0,0,2,0,0,0,0,0,0,0,0,0,0,0,0,0,0,0],"split_type":[0,0,0,0,0,0,0,0,0,0,0,0,0,0,0,0,0,0,0,0,0,0,0,0,0,0,0,0,0,0,0,0,0,0,0,0,0,0,0,0,0,0,0,0,0,0,0,0,0,0,0,0,0,0,0,0,0,0,0],"sum_hessian":[2.132E3,6.7E2,1.462E3,2.99E2,3.71E2,1.2E1,1.45E3,2.3E1,2.76E2,2.58E2,1.13E2,4E0,8E0,8.56E2,5.94E2,5E0,1.8E1,9.4E1,1.82E2,1.62E2,9.6E1,1.08E2,5E0,4.49E2,4.07E2,3.21E2,2.73E2,1.19E2,6.3E1,1.04E2,5.8E1,5.2E1,4.4E1,6.8E1,4E1,2E0,3E0,3.7E1,4.12E2,1.29E2,2.78E2,1.8E2,1.41E2,2.58E2,1.5E1,3.2E1,3.6E1,3.5E1,5E0,1.5E1,2.2E1,1.44E2,2.68E2,1E0,1.28E2,1.72E2,1.06E2,1.5E2,1.08E2],"tree_param":{"num_deleted":"0","num_feature":"3","num_nodes":"59","size_leaf_vector":"1"}},{"base_weights":[-3.119878E-2,-3.8482318E0,1.7194918E0,-6.056667E0,-2.1513739E0,-1.0296512E1,1.8847277E0,-1.3978289E0,-5.6630125E0,-3.047375E0,2.7837276E-2,-1.4480335E0,-2.8617993E-1,1.0156249E0,3.6280599E0,-7.6171494E-1,-4.9946337E0,-3.558158E0,-2.3062148E0,-3.2317445E-1,5.339181E0,-5.2161133E-1,2.843365E0,3.1247685E0,4.561245E0,-5.781265E-1,-4.867173E-1,-4.070155E-1,-3.419689E-1,-2.858476E-1,-1.996327E-1,-7.099361E-1,5.539024E-1,2.6932633E-1,7.413788E-1,-3.5929284E0,3.294852E-1,8.567547E-1,3.5497959E0,2.8227666E-1,3.6821568E-1,4.6691775E-1,7.12442E-1,-1.0754166E-1,-3.5335004E-2,2.4162067E-2,1.1306419E-1,-8.485729E-1,-3.0490336E-1,-4.88961E-2,2.0023324E-1,-9.6000975E-1,1.10027045E-1,4.246457E-1,1.518635E-1],"categories":[],"categories_nodes":[],"categories_segments":[],"categories_sizes":[],"default_left":[0,0,0,0,0,0,0,0,0,0,0,0,0,0,0,0,0,0,0,0,0,0,0,0,0,0,0,0,0,0,0,0,0,0,0,0,0,0,0,0,0,0,0,0,0,0,0,0,0,0,0,0,0,0,0],"id":13,"left_children":[1,3,5,7,9,11,13,-1,15,17,19,-1,-1,21,23,-1,25,27,29,31,33,35,37,39,41,-1,-1,-1,-1,-1,-1,43,45,-1,-1,47,49,51,53,-1,-1,-1,-1,-1,-1,-1,-1,-1,-1,-1,-1,-1,-1,-1,-1],"loss_changes":[1.426027E4,2.5014756E3,2.9241553E3,7.1331055E2,7.4401587E2,4.3740674E2,2.18417E3,0E0,2.2008984E2,9.4008545E1,2.1053201E2,0E0,0E0,2.712813E3,2.1118555E2,0E0,8.870117E0,9.279785E-1,1.2631897E1,3.6350517E1,1.3144394E1,1.3735271E3,6.158594E2,3.6437256E1,5.3852295E1,0E0,0E0,0E0,0E0,0E0,0E0,7.737129E0,5.1257753E0,0E0,0E0,3.531548E2,4.907621E2,1.9166104E2,2.56635E2,0E0,0E0,0E0,0E0,0E0,0E0,0E0,0E0,0E0,0E0,0E0,0E0,0E0,0E0,0E0,0E0],"parents":[2147483647,0,0,1,1,2,2,3,3,4,4,5,5,6,6,8,8,9,9,10,10,13,13,14,14,16,16,17,17,18,18,19,19,20,20,21,21,22,22,23,23,24,24,31,31,32,32,35,35,36,36,37,37,38,38],"right_children":[2,4,6,8,10,12,14,-1,16,18,20,-1,-1,22,24,-1,26,28,30,32,34,36,38,40,42,-1,-1,-1,-1,-1,-1,44,46,-1,-1,48,50,52,54,-1,-1,-1,-1,-1,-1,-1,-1,-1,-1,-1,-1,-1,-1,-1,-1],"split_conditions":[2.2E1,1.0949645E0,5.5699027E-1,7.202067E-1,1.3482263E0,1.18E2,1.6668026E0,-1.3978289E0,9.232377E-1,1.1969385E0,1.605821E0,-1.4480335E0,-2.8617993E-1,4E1,1.8002433E0,-7.6171494E-1,1.0304147E0,1.158443E0,1.2613935E0,1.4627604E0,6E0,1.3257207E0,6.0728246E-1,1.730696E0,1.9455992E0,-5.781265E-1,-4.867173E-1,-4.070155E-1,-3.419689E-1,-2.858476E-1,-1.996327E-1,1.4118102E0,1.5136629E0,2.6932633E-1,7.413788E-1,1.0156263E0,1.5290916E0,1.22E2,4.3E1,2.8227666E-1,3.6821568E-1,4.6691775E-1,7.12442E-1,-1.0754166E-1,-3.5335004E-2,2.4162067E-2,1.1306419E-1,-8.485729E-1,-3.0490336E-1,-4.88961E-2,2.0023324E-1,-9.6000975E-1,1.10027045E-1,4.246457E-1,1.518635E-1],"split_indices":[1,2,2,2,2,0,2,0,2,2,2,0,0,1,2,0,2,2,2,2,0,2,2,2,2,0,0,0,0,0,0,2,2,0,0,2,2,0,1,0,0,0,0,0,0,0,0,0,0,0,0,0,0,0,0],"split_type":[0,0,0,0,0,0,0,0,0,0,0,0,0,0,0,0,0,0,0,0,0,0,0,0,0,0,0,0,0,0,0,0,0,0,0,0,0,0,0,0,0,0,0,0,0,0,0,0,0,0,0,0,0,0,0],"sum_hessian":[2.132E3,6.7E2,1.462E3,2.9E2,3.8E2,1.9E1,1.443E3,1.4E1,2.76E2,2.69E2,1.11E2,1.3E1,6E0,9.64E2,4.79E2,8.7E1,1.89E2,1.57E2,1.12E2,1.05E2,6E0,5.24E2,4.4E2,3.14E2,1.65E2,1.05E2,8.4E1,9.8E1,5.9E1,6.2E1,5E1,7.3E1,3.2E1,3E0,3E0,1.13E2,4.11E2,1.16E2,3.24E2,1.14E2,2E2,1.5E2,1.5E1,4.1E1,3.2E1,2E1,1.2E1,1.6E1,9.7E1,2.72E2,1.39E2,1E0,1.15E2,2.75E2,4.9E1],"tree_param":{"num_deleted":"0","num_feature":"3","num_nodes":"55","size_leaf_vector":"1"}},{"base_weights":[-2.9996559E-2,-3.4371114E0,1.5326856E0,-5.1847134E0,-1.72052E0,-9.269437E0,1.681238E0,-9.25679E0,-4.6736717E0,-2.5114722E0,1.7600507E-1,-1.2041891E1,-2.5964597E-1,7.531395E-1,3.0042677E0,-1.6208446E0,-8.4910953E-1,-5.961993E-1,-4.0411983E0,-2.8954709E0,-1.7072814E0,-1.4798959E-1,5.3305855E0,-1.712337E0,-9.6745217E-1,-9.0629935E-1,2.5960066E0,2.475221E0,3.8694513E0,-4.6779057E-1,-3.9475134E-1,-3.375077E-1,-2.740752E-1,-2.0865199E-1,-1.4610748E-1,-5.1010275E-1,5.921774E-1,2.4492277E-1,6.812319E-1,-4.625838E0,-3.847742E-1,1.6339833E0,4.2602515E0,2.1449027E0,3.1467426E-1,3.6129608E0,5.6730443E-1,-7.517132E-2,-2.2297917E-2,3.9603096E-2,1.6342105E-1,-8.072901E-1,-3.861662E-1,-1.2052672E-1,5.095231E-2,-2.87371E-2,2.2529614E-1,5.053223E-1,-8.1737E-2,2.1899809E-1,2.5294572E-1,3.6773336E-1,4.2839897E-1],"categories":[],"categories_nodes":[],"categories_segments":[],"categories_sizes":[],"default_left":[0,0,0,0,0,0,0,0,0,0,0,0,0,0,0,0,0,0,0,0,0,0,0,0,0,0,0,0,0,0,0,0,0,0,0,0,0,0,0,0,0,0,0,0,0,0,0,0,0,0,0,0,0,0,0,0,0,0,0,0,0,0,0],"id":14,"left_children":[1,3,5,7,9,11,13,15,17,19,21,23,-1,25,27,-1,-1,-1,29,31,33,35,37,-1,-1,39,41,43,45,-1,-1,-1,-1,-1,-1,47,49,-1,-1,51,53,55,57,59,-1,61,-1,-1,-1,-1,-1,-1,-1,-1,-1,-1,-1,-1,-1,-1,-1,-1,-1],"loss_changes":[1.1361866E4,2.0040254E3,2.363234E3,6.476299E2,5.1046277E2,3.5198145E2,1.7708276E3,1.7250049E2,1.3513135E2,6.917053E1,1.6946458E2,2.2724365E1,0E0,2.601759E3,2.6276758E2,0E0,0E0,0E0,3.427002E0,5.178833E0,3.7166443E0,2.6032393E1,3.5341492E0,0E0,0E0,8.6726514E2,6.382593E2,4.706714E1,6.0053955E1,0E0,0E0,0E0,0E0,0E0,0E0,3.508524E0,6.0919333E0,0E0,0E0,1.381261E2,2.46486E2,2.1965674E2,3.0675977E2,2.722168E-1,0E0,7.7197266E-1,0E0,0E0,0E0,0E0,0E0,0E0,0E0,0E0,0E0,0E0,0E0,0E0,0E0,0E0,0E0,0E0,0E0],"parents":[2147483647,0,0,1,1,2,2,3,3,4,4,5,5,6,6,7,7,8,8,9,9,10,10,11,11,13,13,14,14,18,18,19,19,20,20,21,21,22,22,25,25,26,26,27,27,28,28,35,35,36,36,39,39,40,40,41,41,42,42,43,43,45,45],"right_children":[2,4,6,8,10,12,14,16,18,20,22,24,-1,26,28,-1,-1,-1,30,32,34,36,38,-1,-1,40,42,44,46,-1,-1,-1,-1,-1,-1,48,50,-1,-1,52,54,56,58,60,-1,62,-1,-1,-1,-1,-1,-1,-1,-1,-1,-1,-1,-1,-1,-1,-1,-1,-1],"split_conditions":[2.2E1,1.127995E0,5.5699027E-1,8.3649486E-1,1.3635798E0,1.18E2,1.590031E0,4.4122273E-1,1.0041687E0,1.2402537E0,1.6506424E0,4.4122273E-1,-2.5964597E-1,4E1,1.7803866E0,-1.6208446E0,-8.4910953E-1,-5.961993E-1,1.0609068E0,1.1822892E0,1.3002357E0,1.4672064E0,2E0,-1.712337E0,-9.6745217E-1,1.272252E0,6.6006154E-1,1.7268423E0,1.8807709E0,-4.6779057E-1,-3.9475134E-1,-3.375077E-1,-2.740752E-1,-2.0865199E-1,-1.4610748E-1,1.4234351E0,1.542443E0,2.4492277E-1,6.812319E-1,8.3649486E-1,1.4418961E0,5.790231E-1,4.3E1,1.6812978E0,3.1467426E-1,1.8198335E0,5.6730443E-1,-7.517132E-2,-2.2297917E-2,3.9603096E-2,1.6342105E-1,-8.072901E-1,-3.861662E-1,-1.2052672E-1,5.095231E-2,-2.87371E-2,2.2529614E-1,5.053223E-1,-8.1737E-2,2.1899809E-1,2.5294572E-1,3.6773336E-1,4.2839897E-1],"split_indices":[1,2,2,2,2,0,2,2,2,2,2,2,0,1,2,0,0,0,2,2,2,2,0,0,0,2,2,2,2,0,0,0,0,0,0,2,2,0,0,2,2,2,1,2,0,2,0,0,0,0,0,0,0,0,0,0,0,0,0,0,0,0,0],"split_type":[0,0,0,0,0,0,0,0,0,0,0,0,0,0,0,0,0,0,0,0,0,0,0,0,0,0,0,0,0,0,0,0,0,0,0,0,0,0,0,0,0,0,0,0,0,0,0,0,0,0,0,0,0,0,0,0,0,0,0,0,0,0,0],"sum_hessian":[2.132E3,6.7E2,1.462E3,3.31E2,3.39E2,1.9E1,1.443E3,3.5E1,2.96E2,2.39E2,1E2,1.3E1,6E0,8.49E2,5.94E2,5E0,3E1,1.24E2,1.72E2,1.6E2,7.9E1,9.5E1,5E0,4E0,9E0,4.47E2,4.02E2,3.71E2,2.23E2,9.4E1,7.8E1,9.4E1,6.6E1,4.6E1,3.3E1,6.4E1,3.1E1,2E0,3E0,5.4E1,3.93E2,2.56E2,1.46E2,2.14E2,1.57E2,1.91E2,3.2E1,3.9E1,2.5E1,2.6E1,5E0,1.3E1,4.1E1,2.12E2,1.81E2,4.9E1,2.07E2,1.35E2,1.1E1,1.39E2,7.5E1,1.25E2,6.6E1],"tree_param":{"num_deleted":"0","num_feature":"3","num_nodes":"63","size_leaf_vector":"1"}},{"base_weights":[-2.9234523E-2,-3.0710723E0,1.3659141E0,-4.7588263E0,-1.6430955E0,-1.0804715E1,1.4740134E0,-1.0798547E1,-4.4550343E0,-2.3558996E0,9.764598E-2,-1.5641564E0,-8.1923217E-1,6.22455E-1,2.6705296E0,-1.4747373E0,-8.3387405E-1,-6.235793E-1,-3.9469795E0,-2.6852772E0,-1.6121783E0,-1.862927E-1,4.908329E0,-8.8833183E-1,2.2731123E0,2.0455523E0,3.2664506E0,-4.6875888E-1,-3.8792345E-1,-3.1134853E-1,-2.5123256E-1,-1.9915754E-1,-1.4197837E-1,-5.085171E-1,5.3446436E-1,2.2726011E-1,6.2596494E-1,-5.3727894E0,-4.7947577E-1,1.4708177E0,4.004105E0,1.9867042E-1,2.5077742E-1,3.0335114E0,4.4310384E0,-9.037164E-2,-3.3822365E-2,3.3393726E-2,1.4025721E-1,-7.6525056E-1,-4.2089534E-1,-1.7886403E-1,1.0469418E-3,-8.414068E-2,1.9897738E-1,4.75265E-1,-1.1160217E-1,3.0274582E-1,3.559153E-1,4.3570566E-1,6.4832443E-1],"categories":[],"categories_nodes":[],"categories_segments":[],"categories_sizes":[],"default_left":[0,0,0,0,0,0,0,0,0,0,0,0,0,0,0,0,0,0,0,0,0,0,0,0,0,0,0,0,0,0,0,0,0,0,0,0,0,0,0,0,0,0,0,0,0,0,0,0,0,0,0,0,0,0,0,0,0,0,0,0,0],"id":15,"left_children":[1,3,5,7,9,11,13,15,17,19,21,-1,-1,23,25,-1,-1,-1,27,29,31,33,35,37,39,41,43,-1,-1,-1,-1,-1,-1,45,47,-1,-1,49,51,53,55,-1,-1,57,59,-1,-1,-1,-1,-1,-1,-1,-1,-1,-1,-1,-1,-1,-1,-1,-1],"loss_changes":[9.056254E3,1.6093403E3,1.9407046E3,5.1518115E2,4.5312476E2,4.403186E1,1.4767668E3,1.7525269E1,1.7287598E2,5.911682E1,1.4706984E2,0E0,0E0,2.119248E3,2.1789795E2,0E0,0E0,0E0,1.4439697E1,5.777466E0,3.2090454E0,2.3960827E1,2.639618E0,8.114968E2,5.5794995E2,1.2668457E1,6.984082E1,0E0,0E0,0E0,0E0,0E0,0E0,4.2847233E0,5.105609E0,0E0,0E0,6.576758E1,2.343272E2,2.3271295E2,2.5561865E2,0E0,0E0,6.4035645E0,6.7213135E0,0E0,0E0,0E0,0E0,0E0,0E0,0E0,0E0,0E0,0E0,0E0,0E0,0E0,0E0,0E0,0E0],"parents":[2147483647,0,0,1,1,2,2,3,3,4,4,5,5,6,6,7,7,8,8,9,9,10,10,13,13,14,14,18,18,19,19,20,20,21,21,22,22,23,23,24,24,25,25,26,26,33,33,34,34,37,37,38,38,39,39,40,40,43,43,44,44],"right_children":[2,4,6,8,10,12,14,16,18,20,22,-1,-1,24,26,-1,-1,-1,28,30,32,34,36,38,40,42,44,-1,-1,-1,-1,-1,-1,46,48,-1,-1,50,52,54,56,-1,-1,58,60,-1,-1,-1,-1,-1,-1,-1,-1,-1,-1,-1,-1,-1,-1,-1,-1],"split_conditions":[2.2E1,1.1084588E0,4.7298616E-1,7.116204E-1,1.3563259E0,4.4122273E-1,1.5849874E0,4.4122273E-1,9.114905E-1,1.2292513E0,1.6506424E0,-1.5641564E0,-8.1923217E-1,4E1,1.751755E0,-1.4747373E0,-8.3387405E-1,-6.235793E-1,1.018935E0,1.1764376E0,1.2849157E0,1.4672064E0,2E0,1.1907903E0,6.679872E-1,1.6951051E0,1.8675892E0,-4.6875888E-1,-3.8792345E-1,-3.1134853E-1,-2.5123256E-1,-1.9915754E-1,-1.4197837E-1,1.3951643E0,1.5290916E0,2.2726011E-1,6.2596494E-1,8.3649486E-1,1.3482263E0,5.7369334E-1,4.3E1,1.9867042E-1,2.5077742E-1,1.8002433E0,2.0005283E0,-9.037164E-2,-3.3822365E-2,3.3393726E-2,1.4025721E-1,-7.6525056E-1,-4.2089534E-1,-1.7886403E-1,1.0469418E-3,-8.414068E-2,1.9897738E-1,4.75265E-1,-1.1160217E-1,3.0274582E-1,3.559153E-1,4.3570566E-1,6.4832443E-1],"split_indices":[1,2,2,2,2,2,2,2,2,2,2,0,0,1,2,0,0,0,2,2,2,2,0,2,2,2,2,0,0,0,0,0,0,2,2,0,0,2,2,2,1,0,0,2,2,0,0,0,0,0,0,0,0,0,0,0,0,0,0,0,0],"split_type":[0,0,0,0,0,0,0,0,0,0,0,0,0,0,0,0,0,0,0,0,0,0,0,0,0,0,0,0,0,0,0,0,0,0,0,0,0,0,0,0,0,0,0,0,0,0,0,0,0,0,0,0,0,0,0,0,0,0,0,0,0],"sum_hessian":[2.132E3,6.7E2,1.462E3,3.06E2,3.64E2,1.2E1,1.45E3,1.3E1,2.93E2,2.58E2,1.06E2,4E0,8E0,8.48E2,6.02E2,5E0,8E0,7.9E1,2.14E2,1.77E2,8.1E1,1.01E2,5E0,4.43E2,4.05E2,2.96E2,3.06E2,9.8E1,1.16E2,1.11E2,6.6E1,4.3E1,3.8E1,7E1,3.1E1,2E0,3E0,3.6E1,4.07E2,2.78E2,1.27E2,1.72E2,1.24E2,2.58E2,4.8E1,2.5E1,4.5E1,2.5E1,6E0,1.5E1,2.1E1,1.19E2,2.88E2,3.9E1,2.39E2,1.18E2,9E0,1.41E2,1.17E2,4.1E1,7E0],"tree_param":{"num_deleted":"0","num_feature":"3","num_nodes":"61","size_leaf_vector":"1"}},{"base_weights":[-2.8353587E-2,-2.744519E0,1.217426E0,-4.0800004E0,-1.2930405E0,-7.6756387E0,1.3397554E0,-7.552875E0,-3.668843E0,-1.9274582E0,2.0495795E-1,-9.6882E0,-1.3649622E0,5.894027E-1,2.38529E0,-1.3418006E0,-6.8907523E-1,-4.787607E-1,-3.2029312E0,-2.229716E0,-1.2975813E0,-7.86593E-2,4.519596E0,-1.4287992E0,-7.7961576E-1,-3.981362E-3,-2.6808498E0,-7.589273E-1,2.074122E0,1.792817E0,2.8899417E0,-3.7610555E-1,-3.1105414E-1,-2.621171E-1,-2.1621224E-1,-1.6039003E-1,-1.13651164E-1,-3.2418382E-1,6.305011E-1,2.1087168E-1,5.7518166E-1,-3.6779308E-1,-6.719314E-2,-3.4352543E0,-2.8001013E-1,1.4470587E0,3.8280616E0,1.7484547E-1,2.161988E-1,2.630237E0,3.7317774E0,-5.3194135E-2,-6.624796E-3,4.3187954E-2,1.3604648E-1,-6.394787E-1,-2.887685E-1,-8.5954554E-2,4.876461E-2,-9.01982E-1,1.6315341E-1,4.634002E-1,-1.00737184E-1,2.6578367E-1,3.061112E-1,3.6300024E-1,5.2841485E-1],"categories":[],"categories_nodes":[],"categories_segments":[],"categories_sizes":[],"default_left":[0,0,0,0,0,0,0,0,0,0,0,0,0,0,0,0,0,0,0,0,0,0,0,0,0,0,0,0,0,0,0,0,0,0,0,0,0,0,0,0,0,0,0,0,0,0,0,0,0,0,0,0,0,0,0,0,0,0,0,0,0,0,0,0,0,0,0],"id":16,"left_children":[1,3,5,7,9,11,13,15,17,19,21,23,25,27,29,-1,-1,-1,31,33,35,37,39,-1,-1,-1,41,43,45,47,49,-1,-1,-1,-1,-1,-1,51,53,-1,-1,-1,-1,55,57,59,61,-1,-1,63,65,-1,-1,-1,-1,-1,-1,-1,-1,-1,-1,-1,-1,-1,-1,-1,-1],"loss_changes":[7.2208657E3,1.2954058E3,1.6018586E3,4.7062646E2,3.073603E2,2.4078845E2,1.1314407E3,1.27536865E2,9.6586426E1,4.032422E1,1.1905497E2,3.5814575E1,1.0387553E1,1.6871665E3,1.7511108E2,0E0,0E0,0E0,7.7626953E0,1.9467163E0,1.9168777E0,1.6223093E1,1.9360809E0,0E0,0E0,0E0,2.3322182E0,5.6556665E2,4.354928E2,6.939331E0,6.1020264E1,0E0,0E0,0E0,0E0,0E0,0E0,3.010171E0,2.9787226E0,0E0,0E0,0E0,0E0,1.11266846E2,1.4176572E2,1.9052863E2,2.3181091E2,0E0,0E0,1.7243652E0,1.5692505E1,0E0,0E0,0E0,0E0,0E0,0E0,0E0,0E0,0E0,0E0,0E0,0E0,0E0,0E0,0E0,0E0],"parents":[2147483647,0,0,1,1,2,2,3,3,4,4,5,5,6,6,7,7,8,8,9,9,10,10,11,11,12,12,13,13,14,14,18,18,19,19,20,20,21,21,22,22,26,26,27,27,28,28,29,29,30,30,37,37,38,38,43,43,44,44,45,45,46,46,49,49,50,50],"right_children":[2,4,6,8,10,12,14,16,18,20,22,24,26,28,30,-1,-1,-1,32,34,36,38,40,-1,-1,-1,42,44,46,48,50,-1,-1,-1,-1,-1,-1,52,54,-1,-1,-1,-1,56,58,60,62,-1,-1,64,66,-1,-1,-1,-1,-1,-1,-1,-1,-1,-1,-1,-1,-1,-1,-1,-1],"split_conditions":[2.2E1,1.1372732E0,5.5699027E-1,8.3649486E-1,1.3682657E0,5.1E3,1.5849874E0,4.4122273E-1,9.987875E-1,1.2477884E0,1.6506424E0,4.4122273E-1,7.4E3,4E1,1.744741E0,-1.3418006E0,-6.8907523E-1,-4.787607E-1,1.0609068E0,1.1822892E0,1.3060124E0,1.4843972E0,2E0,-1.4287992E0,-7.7961576E-1,-3.981362E-3,7.6E3,1.2895067E0,6.808694E-1,1.6850235E0,1.8470112E0,-3.7610555E-1,-3.1105414E-1,-2.621171E-1,-2.1621224E-1,-1.6039003E-1,-1.13651164E-1,1.4318085E0,1.542443E0,2.1087168E-1,5.7518166E-1,-3.6779308E-1,-6.719314E-2,9.031312E-1,1.4522558E0,1.22E2,4.3E1,1.7484547E-1,2.161988E-1,1.7929914E0,1.9455992E0,-5.3194135E-2,-6.624796E-3,4.3187954E-2,1.3604648E-1,-6.394787E-1,-2.887685E-1,-8.5954554E-2,4.876461E-2,-9.01982E-1,1.6315341E-1,4.634002E-1,-1.00737184E-1,2.6578367E-1,3.061112E-1,3.6300024E-1,5.2841485E-1],"split_indices":[1,2,2,2,2,0,2,2,2,2,2,2,0,1,2,0,0,0,2,2,2,2,0,0,0,0,0,2,2,2,2,0,0,0,0,0,0,2,2,0,0,0,0,2,2,0,1,0,0,2,2,0,0,0,0,0,0,0,0,0,0,0,0,0,0,0,0],"split_type":[0,0,0,0,0,0,0,0,0,0,0,0,0,0,0,0,0,0,0,0,0,0,0,0,0,0,0,0,0,0,0,0,0,0,0,0,0,0,0,0,0,0,0,0,0,0,0,0,0,0,0,0,0,0,0,0,0,0,0,0,0,0,0,0,0,0,0],"sum_hessian":[2.132E3,6.7E2,1.462E3,3.48E2,3.22E2,1.9E1,1.443E3,3.5E1,3.13E2,2.26E2,9.6E1,1.4E1,5E0,8.41E2,6.02E2,5E0,3E1,1.16E2,1.97E2,1.51E2,7.5E1,9.1E1,5E0,4E0,1E1,3E0,2E0,4.41E2,4E2,2.79E2,3.23E2,1.02E2,9.5E1,7.7E1,7.4E1,4E1,3.5E1,6.8E1,2.3E1,2E0,3E0,1E0,1E0,6.6E1,3.75E2,2.96E2,1.04E2,1.55E2,1.24E2,2.5E2,7.3E1,4.1E1,2.7E1,1.8E1,5E0,1.4E1,5.2E1,2.2E2,1.55E2,1E0,2.95E2,9.5E1,9E0,1.41E2,1.09E2,5.8E1,1.5E1],"tree_param":{"num_deleted":"0","num_feature":"3","num_nodes":"67","size_leaf_vector":"1"}},{"base_weights":[-2.77152E-2,-2.4521775E0,1.0842752E0,-3.8768117E0,-1.3576349E0,-5.6124682E0,1.2188544E0,-9.125663E0,-3.6183465E0,-1.9583652E0,-2.1224588E-3,-1.0279981E0,-1.3473386E0,5.400796E-1,2.110244E0,-1.220847E0,-6.8845785E-1,-5.202451E-1,-3.2340858E0,-2.227082E0,-1.4403261E0,-2.6039612E-1,3.5816898E0,-1.8254204E0,-8.9327045E-2,-7.4687874E-1,1.961639E0,1.6896727E0,2.6977057E0,-3.8282892E-1,-3.1866065E-1,-2.608981E-1,-2.1578218E-1,-1.6954215E-1,-1.1784965E-1,-5.7218647E-1,2.0961168E-1,1.9708271E-1,5.285182E-1,-1.0340751E0,-2.5358555E0,-4.073562E0,-4.317791E-1,1.4583406E0,3.7657382E0,1.6165078E-1,2.1782386E-1,2.5746975E0,4.748283E-1,-8.7468795E-2,-3.8793873E-2,4.3959715E-3,6.732776E-2,-2.7232644E-1,-3.6582644E-3,-3.4790093E-1,-6.355902E-2,-5.949689E-1,-3.4276667E-1,-1.40645E-1,-4.399995E-3,6.0977332E-2,2.03962E-1,4.493858E-1,-2.1408889E-1,2.572677E-1,3.1539786E-1],"categories":[],"categories_nodes":[],"categories_segments":[],"categories_sizes":[],"default_left":[0,0,0,0,0,0,0,0,0,0,0,0,0,0,0,0,0,0,0,0,0,0,0,0,0,0,0,0,0,0,0,0,0,0,0,0,0,0,0,0,0,0,0,0,0,0,0,0,0,0,0,0,0,0,0,0,0,0,0,0,0,0,0,0,0,0,0],"id":17,"left_children":[1,3,5,7,9,11,13,15,17,19,21,-1,23,25,27,-1,-1,-1,29,31,33,35,37,39,-1,41,43,45,47,-1,-1,-1,-1,-1,-1,49,51,-1,-1,53,55,57,59,61,63,-1,-1,65,-1,-1,-1,-1,-1,-1,-1,-1,-1,-1,-1,-1,-1,-1,-1,-1,-1,-1,-1],"loss_changes":[5.7531816E3,1.0410422E3,1.3253593E3,3.6176465E2,3.1024323E2,4.6846442E2,8.671113E2,5.72229E0,1.1214307E2,3.3542603E1,1.1015396E2,0E0,2.2327023E0,1.494327E3,1.4862476E2,0E0,0E0,0E0,8.385742E0,2.5719604E0,2.4371033E0,1.6386309E1,9.459183E0,1.3131313E0,0E0,4.4793463E2,3.468125E2,2.0022339E1,4.2184204E1,0E0,0E0,0E0,0E0,0E0,0E0,3.0928173E0,3.1135926E0,0E0,0E0,7.334129E0,2.0867615E0,3.033435E1,1.3342749E2,1.15505615E2,1.9577576E2,0E0,0E0,9.270752E0,0E0,0E0,0E0,0E0,0E0,0E0,0E0,0E0,0E0,0E0,0E0,0E0,0E0,0E0,0E0,0E0,0E0,0E0,0E0],"parents":[2147483647,0,0,1,1,2,2,3,3,4,4,5,5,6,6,7,7,8,8,9,9,10,10,12,12,13,13,14,14,18,18,19,19,20,20,21,21,22,22,23,23,25,25,26,26,27,27,28,28,35,35,36,36,39,39,40,40,41,41,42,42,43,43,44,44,47,47],"right_children":[2,4,6,8,10,12,14,16,18,20,22,-1,24,26,28,-1,-1,-1,30,32,34,36,38,40,-1,42,44,46,48,-1,-1,-1,-1,-1,-1,50,52,-1,-1,54,56,58,60,62,64,-1,-1,66,-1,-1,-1,-1,-1,-1,-1,-1,-1,-1,-1,-1,-1,-1,-1,-1,-1,-1,-1],"split_conditions":[2.2E1,1.0949645E0,5.6304646E-1,7.077771E-1,1.3360648E0,1.22E2,1.5697985E0,4.4122273E-1,8.9364916E-1,1.2070723E0,1.5537149E0,-1.0279981E0,5.5699027E-1,4E1,1.7715391E0,-1.220847E0,-6.8845785E-1,-5.202451E-1,1.0124589E0,1.1555564E0,1.2849157E0,1.440948E0,8E0,7.4E3,-8.9327045E-2,1.2070723E0,6.912011E-1,1.7221735E0,1.9455992E0,-3.8282892E-1,-3.1866065E-1,-2.608981E-1,-2.1578218E-1,-1.6954215E-1,-1.1784965E-1,1.3841605E0,1.5077851E0,1.9708271E-1,5.285182E-1,5.1E3,7.6E3,7.9107636E-1,1.3515813E0,6.043594E-1,4.3E1,1.6165078E-1,2.1782386E-1,1.8198335E0,4.748283E-1,-8.7468795E-2,-3.8793873E-2,4.3959715E-3,6.732776E-2,-2.7232644E-1,-3.6582644E-3,-3.4790093E-1,-6.355902E-2,-5.949689E-1,-3.4276667E-1,-1.40645E-1,-4.399995E-3,6.0977332E-2,2.03962E-1,4.493858E-1,-2.1408889E-1,2.572677E-1,3.1539786E-1],"split_indices":[1,2,2,2,2,0,2,2,2,2,2,0,2,1,2,0,0,0,2,2,2,2,0,0,0,2,2,2,2,0,0,0,0,0,0,2,2,0,0,0,0,2,2,2,1,0,0,2,0,0,0,0,0,0,0,0,0,0,0,0,0,0,0,0,0,0,0],"split_type":[0,0,0,0,0,0,0,0,0,0,0,0,0,0,0,0,0,0,0,0,0,0,0,0,0,0,0,0,0,0,0,0,0,0,0,0,0,0,0,0,0,0,0,0,0,0,0,0,0,0,0,0,0,0,0,0,0,0,0,0,0,0,0,0,0,0,0],"sum_hessian":[2.132E3,6.7E2,1.462E3,2.9E2,3.8E2,2.8E1,1.434E3,1.2E1,2.78E2,2.63E2,1.17E2,1.4E1,1.4E1,8.15E2,6.19E2,5E0,7E0,6.5E1,2.13E2,1.71E2,9.2E1,1.1E2,7E0,6E0,8E0,4.28E2,3.87E2,3.63E2,2.56E2,9.8E1,1.15E2,9E1,8.1E1,6.5E1,2.7E1,6.6E1,4.4E1,4E0,3E0,4E0,2E0,3.6E1,3.92E2,3.04E2,8.3E1,2.3E2,1.33E2,2.41E2,1.5E1,3E1,3.6E1,3.2E1,1.2E1,1E0,3E0,1E0,1E0,1.2E1,2.4E1,1.21E2,2.71E2,9.9E1,2.05E2,7.8E1,5E0,1.58E2,8.3E1],"tree_param":{"num_deleted":"0","num_feature":"3","num_nodes":"67","size_leaf_vector":"1"}},{"base_weights":[-2.6679214E-2,-2.1917274E0,9.66331E-1,-3.5619102E0,-1.2773691E0,-5.067595E0,1.0875976E0,-9.184269E-1,-3.3179224E0,-1.8060908E0,-1.1010488E-2,-8.543968E0,-1.2533821E0,4.7383153E-1,1.875552E0,-4.6728787E-1,-2.9490752E0,-2.0642006E0,-1.3439575E0,-2.1140727E-1,3.831763E0,-1.2161953E0,-7.074725E-1,-1.7261707E0,-8.073825E-2,-7.0410746E-1,1.7507348E0,1.3969879E0,2.2980158E0,-3.474526E-1,-2.9441658E-1,-2.3784374E-1,-1.9559978E-1,-1.6262533E-1,-1.1672666E-1,-5.2296865E-1,2.504894E-1,1.1444708E-1,4.5160502E-1,-9.7741777E-1,-2.398702E0,-3.500506E0,-4.013346E-1,1.3014584E0,3.3611941E0,1.2654848E0,1.6959217E-1,2.1326E0,3.2098541E0,-8.014363E-2,-3.5230137E-2,4.9406663E-3,7.896554E-2,-2.5759766E-1,-3.3617823E-3,-3.2908452E-1,-6.012131E-2,-5.272913E-1,-2.9081205E-1,-9.427379E-2,1.4509942E-2,4.8086293E-2,1.7935887E-1,4.013904E-1,-1.947904E-1,1.438949E-1,1.2010704E-1,2.1409178E-1,2.5498867E-1,3.113678E-1,4.9200407E-1],"categories":[],"categories_nodes":[],"categories_segments":[],"categories_sizes":[],"default_left":[0,0,0,0,0,0,0,0,0,0,0,0,0,0,0,0,0,0,0,0,0,0,0,0,0,0,0,0,0,0,0,0,0,0,0,0,0,0,0,0,0,0,0,0,0,0,0,0,0,0,0,0,0,0,0,0,0,0,0,0,0,0,0,0,0,0,0,0,0,0,0],"id":18,"left_children":[1,3,5,7,9,11,13,-1,15,17,19,21,23,25,27,-1,29,31,33,35,37,-1,-1,39,-1,41,43,45,47,-1,-1,-1,-1,-1,-1,49,51,-1,-1,53,55,57,59,61,63,65,-1,67,69,-1,-1,-1,-1,-1,-1,-1,-1,-1,-1,-1,-1,-1,-1,-1,-1,-1,-1,-1,-1,-1,-1],"loss_changes":[4.587886E3,8.3610474E2,1.0760083E3,2.9410303E2,2.7047876E2,3.738203E2,6.9310535E2,0E0,8.224048E1,3.1220886E1,9.32196E1,7.5925293E0,2.3070774E0,1.2165569E3,1.2375635E2,0E0,2.675415E0,2.258484E0,2.8121185E0,1.6680553E1,1.293663E0,0E0,0E0,1.1803837E0,0E0,3.5504468E2,2.7635962E2,4.687744E0,4.323108E1,0E0,0E0,0E0,0E0,0E0,0E0,2.7251968E0,4.5826187E0,0E0,0E0,6.5691514E0,1.8671455E0,3.2644775E1,9.604268E1,9.247528E1,1.5822699E2,2.61261E-1,0E0,5.1228027E0,8.642273E0,0E0,0E0,0E0,0E0,0E0,0E0,0E0,0E0,0E0,0E0,0E0,0E0,0E0,0E0,0E0,0E0,0E0,0E0,0E0,0E0,0E0,0E0],"parents":[2147483647,0,0,1,1,2,2,3,3,4,4,5,5,6,6,8,8,9,9,10,10,11,11,12,12,13,13,14,14,16,16,17,17,18,18,19,19,20,20,23,23,25,25,26,26,27,27,28,28,35,35,36,36,39,39,40,40,41,41,42,42,43,43,44,44,45,45,47,47,48,48],"right_children":[2,4,6,8,10,12,14,-1,16,18,20,22,24,26,28,-1,30,32,34,36,38,-1,-1,40,-1,42,44,46,48,-1,-1,-1,-1,-1,-1,50,52,-1,-1,54,56,58,60,62,64,66,-1,68,70,-1,-1,-1,-1,-1,-1,-1,-1,-1,-1,-1,-1,-1,-1,-1,-1,-1,-1,-1,-1,-1,-1],"split_conditions":[2.2E1,1.0746465E0,5.6304646E-1,7.047349E-1,1.3286903E0,1.22E2,1.5632207E0,-9.184269E-1,8.9364916E-1,1.1969385E0,1.6506424E0,4.4122273E-1,5.5699027E-1,4E1,1.7408787E0,-4.6728787E-1,1.0041687E0,1.1555564E0,1.2613935E0,1.440948E0,1.6812978E0,-1.2161953E0,-7.074725E-1,7.4E3,-8.073825E-2,1.2402537E0,6.912011E-1,1.6812978E0,1.8675892E0,-3.474526E-1,-2.9441658E-1,-2.3784374E-1,-1.9559978E-1,-1.6262533E-1,-1.1672666E-1,1.3775419E0,1.5136629E0,1.1444708E-1,4.5160502E-1,5.1E3,7.6E3,8.3649486E-1,1.4289274E0,5.9986216E-1,4.3E1,4E1,1.6959217E-1,1.8024017E0,2.0005283E0,-8.014363E-2,-3.5230137E-2,4.9406663E-3,7.896554E-2,-2.5759766E-1,-3.3617823E-3,-3.2908452E-1,-6.012131E-2,-5.272913E-1,-2.9081205E-1,-9.427379E-2,1.4509942E-2,4.8086293E-2,1.7935887E-1,4.013904E-1,-1.947904E-1,1.438949E-1,1.2010704E-1,2.1409178E-1,2.5498867E-1,3.113678E-1,4.9200407E-1],"split_indices":[1,2,2,2,2,0,2,0,2,2,2,2,2,1,2,0,2,2,2,2,2,0,0,0,0,2,2,2,2,0,0,0,0,0,0,2,2,0,0,0,0,2,2,2,1,1,0,2,2,0,0,0,0,0,0,0,0,0,0,0,0,0,0,0,0,0,0,0,0,0,0],"split_type":[0,0,0,0,0,0,0,0,0,0,0,0,0,0,0,0,0,0,0,0,0,0,0,0,0,0,0,0,0,0,0,0,0,0,0,0,0,0,0,0,0,0,0,0,0,0,0,0,0,0,0,0,0,0,0,0,0,0,0,0,0,0,0,0,0,0,0,0,0,0,0],"sum_hessian":[2.132E3,6.7E2,1.462E3,2.67E2,4.03E2,2.8E1,1.434E3,1.1E1,2.56E2,2.84E2,1.19E2,1.4E1,1.4E1,8.07E2,6.27E2,6.6E1,1.9E2,1.8E2,1.04E2,1.14E2,5E0,4E0,1E1,6E0,8E0,4.2E2,3.87E2,2.96E2,3.31E2,8.2E1,1.08E2,1.13E2,6.7E1,6.2E1,4.2E1,6.8E1,4.6E1,1E0,4E0,4E0,2E0,4E1,3.8E2,3.04E2,8.3E1,1.72E2,1.24E2,2.83E2,4.8E1,3.1E1,3.7E1,3.3E1,1.3E1,1E0,3E0,1E0,1E0,1.3E1,2.7E1,2.02E2,1.78E2,9E1,2.14E2,7.8E1,5E0,1.16E2,5.6E1,1.74E2,1.09E2,4.1E1,7E0],"tree_param":{"num_deleted":"0","num_feature":"3","num_nodes":"71","size_leaf_vector":"1"}},{"base_weights":[-2.5489492E-2,-1.9579324E0,8.6083627E-1,-3.101537E0,-1.0793315E0,-4.610963E0,9.708163E-1,-7.316602E0,-2.878111E0,-1.5298505E0,8.863139E-2,-7.5453253E0,-9.2805153E-1,5.002099E-1,1.7954497E0,-1.0280071E0,-5.4579985E-1,-3.6913896E0,-2.5367017E0,-1.749802E0,-1.0505158E0,-1.3098031E-1,3.244653E0,-1.1109494E0,-6.253539E-1,-3.7792397E-1,-1.4241899E0,-3.3264154E-1,1.5178238E0,1.5554583E0,2.384184E0,-4.4208926E-1,-3.478196E-1,-2.9221413E-1,-2.430142E-1,-2.0624168E-1,-1.6828206E-1,-1.2706877E-1,-8.816812E-2,-3.1802797E-1,3.4438035E-1,1.652095E-1,4.4900218E-1,-3.0888205E-3,-6.293775E-2,-2.2689667E0,-6.841679E-2,-2.0228643E0,1.3343655E-1,7.212212E-1,2.0971837E0,1.4043376E-1,1.8941559E-1,2.406142E-1,3.8655075E-1,-5.2589674E-2,-1.5283513E-2,2.0980855E-2,7.734131E-2,-3.1128567E-1,-5.68697E-2,-3.791787E-1,-1.5022045E-1,-2.7815038E-2,1.06252424E-1,6.956029E-3,1.0559437E-1,2.5353304E-1,3.3435818E-2],"categories":[],"categories_nodes":[],"categories_segments":[],"categories_sizes":[],"default_left":[0,0,0,0,0,0,0,0,0,0,0,0,0,0,0,0,0,0,0,0,0,0,0,0,0,0,0,0,0,0,0,0,0,0,0,0,0,0,0,0,0,0,0,0,0,0,0,0,0,0,0,0,0,0,0,0,0,0,0,0,0,0,0,0,0,0,0,0,0],"id":19,"left_children":[1,3,5,7,9,11,13,15,17,19,21,23,25,27,29,-1,-1,31,33,35,37,39,41,-1,-1,43,45,47,49,51,53,-1,-1,-1,-1,-1,-1,-1,-1,55,57,-1,-1,-1,-1,59,-1,61,63,65,67,-1,-1,-1,-1,-1,-1,-1,-1,-1,-1,-1,-1,-1,-1,-1,-1,-1,-1],"loss_changes":[3.6550322E3,6.7085425E2,8.8489307E2,2.5299292E2,2.0061368E2,3.0640045E2,5.559935E2,2.1575745E1,6.782568E1,2.7155212E1,7.458661E1,1.7542908E1,3.282917E0,7.759869E2,6.9904175E1,0E0,0E0,1.9190674E0,3.4403076E0,2.725891E0,1.6446686E0,9.089947E0,4.5542374E0,0E0,0E0,5.533056E-1,3.246603E0,3.9730896E2,1.8863348E2,1.6493286E1,2.0369446E1,0E0,0E0,0E0,0E0,0E0,0E0,0E0,0E0,2.1006637E0,1.4779925E0,0E0,0E0,0E0,0E0,1.6706276E0,0E0,9.760306E1,1.3153854E2,2.9247108E1,1.0423157E2,0E0,0E0,0E0,0E0,0E0,0E0,0E0,0E0,0E0,0E0,0E0,0E0,0E0,0E0,0E0,0E0,0E0,0E0],"parents":[2147483647,0,0,1,1,2,2,3,3,4,4,5,5,6,6,7,7,8,8,9,9,10,10,11,11,12,12,13,13,14,14,17,17,18,18,19,19,20,20,21,21,22,22,25,25,26,26,27,27,28,28,29,29,30,30,39,39,40,40,45,45,47,47,48,48,49,49,50,50],"right_children":[2,4,6,8,10,12,14,16,18,20,22,24,26,28,30,-1,-1,32,34,36,38,40,42,-1,-1,44,46,48,50,52,54,-1,-1,-1,-1,-1,-1,-1,-1,56,58,-1,-1,-1,-1,60,-1,62,64,66,68,-1,-1,-1,-1,-1,-1,-1,-1,-1,-1,-1,-1,-1,-1,-1,-1,-1,-1],"split_conditions":[2.2E1,1.0949645E0,5.6304646E-1,7.116204E-1,1.3563259E0,5.1E3,1.641919E0,4.4122273E-1,9.114905E-1,1.222626E0,1.605821E0,4.4122273E-1,7.4E3,4E1,1.806055E0,-1.0280071E0,-5.4579985E-1,8.6382717E-1,1.0331839E0,1.158443E0,1.2895067E0,1.472248E0,6E0,-1.1109494E0,-6.253539E-1,5.5699027E-1,5.5699027E-1,1.3219094E0,6.301612E-1,1.7323725E0,1.9455992E0,-4.4208926E-1,-3.478196E-1,-2.9221413E-1,-2.430142E-1,-2.0624168E-1,-1.6828206E-1,-1.2706877E-1,-8.816812E-2,1.4118102E0,1.5245314E0,1.652095E-1,4.4900218E-1,-3.0888205E-3,-6.293775E-2,7.6E3,-6.841679E-2,1.1822892E0,1.5245314E0,5.826698E-1,4.3E1,1.4043376E-1,1.8941559E-1,2.406142E-1,3.8655075E-1,-5.2589674E-2,-1.5283513E-2,2.0980855E-2,7.734131E-2,-3.1128567E-1,-5.68697E-2,-3.791787E-1,-1.5022045E-1,-2.7815038E-2,1.06252424E-1,6.956029E-3,1.0559437E-1,2.5353304E-1,3.3435818E-2],"split_indices":[1,2,2,2,2,0,2,2,2,2,2,2,0,1,2,0,0,2,2,2,2,2,0,0,0,2,2,2,2,2,2,0,0,0,0,0,0,0,0,2,2,0,0,0,0,0,0,2,2,2,1,0,0,0,0,0,0,0,0,0,0,0,0,0,0,0,0,0,0],"split_type":[0,0,0,0,0,0,0,0,0,0,0,0,0,0,0,0,0,0,0,0,0,0,0,0,0,0,0,0,0,0,0,0,0,0,0,0,0,0,0,0,0,0,0,0,0,0,0,0,0,0,0,0,0,0,0,0,0,0,0,0,0,0,0,0,0,0,0,0,0],"sum_hessian":[2.132E3,6.7E2,1.462E3,2.9E2,3.8E2,2.8E1,1.434E3,1.3E1,2.77E2,2.74E2,1.06E2,1.5E1,1.3E1,9.14E2,5.2E2,5E0,8E0,7.9E1,1.98E2,1.86E2,8.8E1,1E2,6E0,4E0,1.1E1,7E0,6E0,5.03E2,4.11E2,3.72E2,1.48E2,3.9E1,4E1,1.21E2,7.7E1,9.8E1,8.8E1,5.5E1,3.3E1,7.2E1,2.8E1,3E0,3E0,3E0,4E0,2E0,4E0,1.08E2,3.95E2,1.74E2,2.37E2,1.64E2,2.08E2,1.33E2,1.5E1,3.6E1,3.6E1,2.1E1,7E0,1E0,1E0,3.1E1,7.7E1,2.71E2,1.24E2,4.9E1,1.25E2,2.08E2,2.9E1],"tree_param":{"num_deleted":"0","num_feature":"3","num_nodes":"69","size_leaf_vector":"1"}},{"base_weights":[-2.4690507E-2,-1.7503792E0,7.668077E-1,-2.612794E0,-8.1312495E-1,-4.1893926E0,8.6643344E-1,-5.676622E0,-2.3792214E0,-1.2249495E0,1.5901192E-1,-7.0348454E0,-1.0646466E0,3.7257424E-1,1.500465E0,-8.646845E0,-4.8026806E-1,-2.9668465E0,-2.0620437E0,-1.4327096E0,-8.542065E-1,-4.3131705E-2,3.2320454E0,-1.0148113E0,-5.7640564E-1,-1.4890741E0,-6.665969E-2,-5.6712145E-1,1.3912323E0,1.2143704E0,1.9548395E0,-2.7146262E-1,-1.0138228E0,-3.5731816E-1,-2.911528E-1,-2.4366553E-1,-1.9913992E-1,-1.6624573E-1,-1.3954715E-1,-1.0456896E-1,-7.3271364E-2,-2.0729783E-1,4.3064308E-1,1.4912854E-1,4.125751E-1,-7.969551E-1,-2.1462479E0,-2.3251355E0,-2.5125548E-1,1.0847594E0,3.3079052E0,1.0735306E0,1.5722431E-1,1.8840989E0,4.0884894E-1,-3.5366375E-2,-6.3534514E-3,2.9527482E-2,1.05489396E-1,-2.0984276E-1,-2.8381413E-3,-2.9444954E-1,-5.3793877E-2,-4.0833423E-1,-1.8610214E-1,-5.6832325E-2,2.5903031E-2,6.156156E-2,1.6145413E-1,4.176237E-1,-1.8024482E-1,1.0776699E-1,1.2348739E-1,1.878184E-1,2.4085E-1],"categories":[],"categories_nodes":[],"categories_segments":[],"categories_sizes":[],"default_left":[0,0,0,0,0,0,0,0,0,0,0,0,0,0,0,0,0,0,0,0,0,0,0,0,0,0,0,0,0,0,0,0,0,0,0,0,0,0,0,0,0,0,0,0,0,0,0,0,0,0,0,0,0,0,0,0,0,0,0,0,0,0,0,0,0,0,0,0,0,0,0,0,0,0,0],"id":20,"left_children":[1,3,5,7,9,11,13,15,17,19,21,23,25,27,29,31,-1,33,35,37,39,41,43,-1,-1,45,-1,47,49,51,53,-1,-1,-1,-1,-1,-1,-1,-1,-1,-1,55,57,-1,-1,59,61,63,65,67,69,71,-1,73,-1,-1,-1,-1,-1,-1,-1,-1,-1,-1,-1,-1,-1,-1,-1,-1,-1,-1,-1,-1,-1],"loss_changes":[2.9147632E3,5.4024634E2,7.260084E2,2.3624756E2,1.2950775E2,2.5035861E2,4.487716E2,4.977002E1,5.464258E1,1.6261017E1,6.0395233E1,1.0067932E1,1.9370975E0,7.742297E2,7.926245E1,3.1965332E0,0E0,1.4802856E0,4.909973E0,1.5707397E-1,1.0162315E0,7.244827E0,1.2143974E0,0E0,0E0,1.4734344E0,0E0,2.3319572E2,2.2432611E2,1.1505798E1,2.3988953E1,0E0,0E0,0E0,0E0,0E0,0E0,0E0,0E0,0E0,0E0,1.20731E0,1.7945161E0,0E0,0E0,4.3535895E0,1.4947968E0,4.9611664E1,4.8285416E1,6.980838E1,1.52185E2,1.6687012E-1,0E0,7.9776E0,0E0,0E0,0E0,0E0,0E0,0E0,0E0,0E0,0E0,0E0,0E0,0E0,0E0,0E0,0E0,0E0,0E0,0E0,0E0,0E0,0E0],"parents":[2147483647,0,0,1,1,2,2,3,3,4,4,5,5,6,6,7,7,8,8,9,9,10,10,11,11,12,12,13,13,14,14,15,15,17,17,18,18,19,19,20,20,21,21,22,22,25,25,27,27,28,28,29,29,30,30,41,41,42,42,45,45,46,46,47,47,48,48,49,49,50,50,51,51,53,53],"right_children":[2,4,6,8,10,12,14,16,18,20,22,24,26,28,30,32,-1,34,36,38,40,42,44,-1,-1,46,-1,48,50,52,54,-1,-1,-1,-1,-1,-1,-1,-1,-1,-1,56,58,-1,-1,60,62,64,66,68,70,72,-1,74,-1,-1,-1,-1,-1,-1,-1,-1,-1,-1,-1,-1,-1,-1,-1,-1,-1,-1,-1,-1,-1],"split_conditions":[2.2E1,1.1372732E0,5.6304646E-1,7.731773E-1,1.3682657E0,1.22E2,1.5632207E0,4.4122273E-1,9.811309E-1,1.2402537E0,1.6506424E0,4.4122273E-1,5.5699027E-1,4E1,1.7777019E0,4.1E1,-4.8026806E-1,8.835064E-1,1.0567629E0,1.1822892E0,1.3060124E0,1.4843972E0,2E0,-1.0148113E0,-5.7640564E-1,7.4E3,-6.665969E-2,1.2849157E0,7.047349E-1,1.7268423E0,2.0005283E0,-2.7146262E-1,-1.0138228E0,-3.5731816E-1,-2.911528E-1,-2.4366553E-1,-1.9913992E-1,-1.6624573E-1,-1.3954715E-1,-1.0456896E-1,-7.3271364E-2,1.4289274E0,1.5463903E0,1.4912854E-1,4.125751E-1,5.1E3,7.6E3,1.0304147E0,1.4565623E0,6.214629E-1,4.3E1,1.6506424E0,1.5722431E-1,1.8470112E0,4.0884894E-1,-3.5366375E-2,-6.3534514E-3,2.9527482E-2,1.05489396E-1,-2.0984276E-1,-2.8381413E-3,-2.9444954E-1,-5.3793877E-2,-4.0833423E-1,-1.8610214E-1,-5.6832325E-2,2.5903031E-2,6.156156E-2,1.6145413E-1,4.176237E-1,-1.8024482E-1,1.0776699E-1,1.2348739E-1,1.878184E-1,2.4085E-1],"split_indices":[1,2,2,2,2,0,2,2,2,2,2,2,2,1,2,0,0,2,2,2,2,2,0,0,0,0,0,2,2,2,2,0,0,0,0,0,0,0,0,0,0,2,2,0,0,0,0,2,2,2,1,2,0,2,0,0,0,0,0,0,0,0,0,0,0,0,0,0,0,0,0,0,0,0,0],"split_type":[0,0,0,0,0,0,0,0,0,0,0,0,0,0,0,0,0,0,0,0,0,0,0,0,0,0,0,0,0,0,0,0,0,0,0,0,0,0,0,0,0,0,0,0,0,0,0,0,0,0,0,0,0,0,0,0,0,0,0,0,0,0,0,0,0,0,0,0,0,0,0,0,0,0,0],"sum_hessian":[2.132E3,6.7E2,1.462E3,3.48E2,3.22E2,2.8E1,1.434E3,2.3E1,3.25E2,2.26E2,9.6E1,1.4E1,1.4E1,8.07E2,6.27E2,5E0,1.8E1,1.11E2,2.14E2,1.43E2,8.3E1,9.1E1,5E0,4E0,1E1,6E0,8E0,4.2E2,3.87E2,3.87E2,2.4E2,1E0,4E0,4.5E1,6.6E1,1.1E2,1.04E2,7.7E1,6.6E1,4.8E1,3.5E1,6.8E1,2.3E1,2E0,3E0,4E0,2E0,6.3E1,3.57E2,3.35E2,5.2E1,2.47E2,1.4E2,2.33E2,7E0,3.7E1,3.1E1,1.9E1,4E0,1E0,3E0,1E0,1E0,1.7E1,4.6E1,2.29E2,1.28E2,1.49E2,1.86E2,4.7E1,5E0,1.23E2,1.24E2,1.67E2,6.6E1],"tree_param":{"num_deleted":"0","num_feature":"3","num_nodes":"75","size_leaf_vector":"1"}},{"base_weights":[-2.382201E-2,-1.5650412E0,6.830692E-1,-2.5543587E0,-9.048873E-1,-3.8127313E0,7.734491E-1,-6.5560317E0,-2.3738441E0,-1.2429229E0,1.215256E-1,-6.2105846E0,-7.999894E-1,3.3206832E-1,1.3401088E0,-7.925719E0,-4.4281763E-1,-3.105055E0,-2.1010892E0,-1.4273467E0,-8.221657E-1,-5.8147907E-2,2.9760475E0,-9.18254E0,-4.8184E0,-3.109045E-1,-1.2446594E0,-5.072607E-1,1.2419277E0,1.1305729E0,1.8434578E0,-2.5678036E-1,-9.260896E-1,-3.729138E-1,-2.903031E-1,-2.5346753E-1,-2.1175502E-1,-1.690721E-1,-1.355601E-1,-1.03136644E-1,-7.086279E-2,-1.8443866E-1,4.6336928E-1,1.3837405E-1,3.7910357E-1,-1.1345894E0,-2.8468913E-1,-3.6877906E0,-7.9590595E-1,-2.607888E-3,-5.1723164E-2,-2.0301666E0,-5.672751E-2,-1.7027605E0,-1.2460995E-1,9.877932E-1,3.109889E0,9.626929E-1,1.4577697E-1,1.7612362E0,3.7015122E-1,-3.4131028E-2,-3.3154436E-3,3.136926E-2,9.636047E-2,-1.1607423E-1,-4.1558927E-1,-2.785241E-1,-5.088435E-2,-3.4164476E-1,-1.3661899E-1,-3.310946E-2,3.4791496E-2,3.8715858E-2,1.3757844E-1,4.0142456E-1,-1.639971E-1,9.845129E-2,1.14729226E-1,1.7375658E-1,2.1518557E-1],"categories":[],"categories_nodes":[],"categories_segments":[],"categories_sizes":[],"default_left":[0,0,0,0,0,0,0,0,0,0,0,0,0,0,0,0,0,0,0,0,0,0,0,0,0,0,0,0,0,0,0,0,0,0,0,0,0,0,0,0,0,0,0,0,0,0,0,0,0,0,0,0,0,0,0,0,0,0,0,0,0,0,0,0,0,0,0,0,0,0,0,0,0,0,0,0,0,0,0,0,0],"id":21,"left_children":[1,3,5,7,9,11,13,15,17,19,21,23,25,27,29,31,-1,33,35,37,39,41,43,45,47,49,51,53,55,57,59,-1,-1,-1,-1,-1,-1,-1,-1,-1,-1,61,63,-1,-1,-1,-1,65,-1,-1,-1,67,-1,69,71,73,75,77,-1,79,-1,-1,-1,-1,-1,-1,-1,-1,-1,-1,-1,-1,-1,-1,-1,-1,-1,-1,-1,-1,-1],"loss_changes":[2.3249177E3,4.3591992E2,5.974097E2,1.7802966E2,1.4032455E2,2.0453094E2,3.5846667E2,4.6539917E0,4.4931885E1,2.2416168E1,5.1974133E1,2.1955017E1,2.6577682E0,6.1767645E2,6.415076E1,8.4988403E-1,0E0,5.57251E-1,2.0488892E0,3.0023804E0,1.4591675E0,6.4082913E0,8.98613E-1,6.623535E0,1.0190247E1,3.7221742E-1,2.8955889E0,1.9237799E2,1.8111688E2,1.4956177E1,1.7723389E1,0E0,0E0,0E0,0E0,0E0,0E0,0E0,0E0,0E0,0E0,1.5628109E0,1.1497078E0,0E0,0E0,0E0,0E0,3.1150818E-1,0E0,0E0,0E0,1.3374805E0,0E0,6.130493E1,2.6012531E1,6.0916718E1,1.3354178E2,3.4700012E-1,0E0,3.0232544E0,0E0,0E0,0E0,0E0,0E0,0E0,0E0,0E0,0E0,0E0,0E0,0E0,0E0,0E0,0E0,0E0,0E0,0E0,0E0,0E0,0E0],"parents":[2147483647,0,0,1,1,2,2,3,3,4,4,5,5,6,6,7,7,8,8,9,9,10,10,11,11,12,12,13,13,14,14,15,15,17,17,18,18,19,19,20,20,21,21,22,22,23,23,24,24,25,25,26,26,27,27,28,28,29,29,30,30,41,41,42,42,47,47,51,51,53,53,54,54,55,55,56,56,57,57,59,59],"right_children":[2,4,6,8,10,12,14,16,18,20,22,24,26,28,30,32,-1,34,36,38,40,42,44,46,48,50,52,54,56,58,60,-1,-1,-1,-1,-1,-1,-1,-1,-1,-1,62,64,-1,-1,-1,-1,66,-1,-1,-1,68,-1,70,72,74,76,78,-1,80,-1,-1,-1,-1,-1,-1,-1,-1,-1,-1,-1,-1,-1,-1,-1,-1,-1,-1,-1,-1,-1],"split_conditions":[2.2E1,1.0746465E0,5.6304646E-1,6.939848E-1,1.3635798E0,5.1E3,1.5632207E0,4.4122273E-1,8.9364916E-1,1.222626E0,1.6506424E0,8E0,7.4E3,4E1,1.7929914E0,4.1E1,-4.4281763E-1,8.474446E-1,9.907592E-1,1.1555564E0,1.2849157E0,1.497822E0,2E0,4.4122273E-1,4.3E1,5.5699027E-1,5.5699027E-1,1.3176486E0,7.077771E-1,1.7287127E0,2.0005283E0,-2.5678036E-1,-9.260896E-1,-3.729138E-1,-2.903031E-1,-2.5346753E-1,-2.1175502E-1,-1.690721E-1,-1.355601E-1,-1.03136644E-1,-7.086279E-2,1.4289274E0,1.5463903E0,1.3837405E-1,3.7910357E-1,-1.1345894E0,-2.8468913E-1,4.4122273E-1,-7.9590595E-1,-2.607888E-3,-5.1723164E-2,7.6E3,-5.672751E-2,1.0670958E0,1.4843972E0,6.0728246E-1,4.3E1,1.6812978E0,1.4577697E-1,1.8470112E0,3.7015122E-1,-3.4131028E-2,-3.3154436E-3,3.136926E-2,9.636047E-2,-1.1607423E-1,-4.1558927E-1,-2.785241E-1,-5.088435E-2,-3.4164476E-1,-1.3661899E-1,-3.310946E-2,3.4791496E-2,3.8715858E-2,1.3757844E-1,4.0142456E-1,-1.639971E-1,9.845129E-2,1.14729226E-1,1.7375658E-1,2.1518557E-1],"split_indices":[1,2,2,2,2,0,2,2,2,2,2,0,0,1,2,0,0,2,2,2,2,2,0,2,1,2,2,2,2,2,2,0,0,0,0,0,0,0,0,0,0,2,2,0,0,0,0,2,0,0,0,0,0,2,2,2,1,2,0,2,0,0,0,0,0,0,0,0,0,0,0,0,0,0,0,0,0,0,0,0,0],"split_type":[0,0,0,0,0,0,0,0,0,0,0,0,0,0,0,0,0,0,0,0,0,0,0,0,0,0,0,0,0,0,0,0,0,0,0,0,0,0,0,0,0,0,0,0,0,0,0,0,0,0,0,0,0,0,0,0,0,0,0,0,0,0,0,0,0,0,0,0,0,0,0,0,0,0,0,0,0,0,0,0,0],"sum_hessian":[2.132E3,6.7E2,1.462E3,2.67E2,4.03E2,2.8E1,1.434E3,1E1,2.57E2,3.03E2,1E2,1.5E1,1.3E1,8.07E2,6.27E2,5E0,5E0,6.7E1,1.9E2,2.09E2,9.4E1,9.5E1,5E0,3E0,1.2E1,7E0,6E0,4.2E2,3.87E2,4.45E2,1.82E2,1E0,4E0,3.3E1,3.4E1,6.5E1,1.25E2,1.13E2,9.6E1,5E1,4.4E1,7.7E1,1.8E1,2E0,3E0,2E0,1E0,1E1,2E0,3E0,4E0,2E0,4E0,1.01E2,3.19E2,3.42E2,4.5E1,2.54E2,1.91E2,1.75E2,7E0,4.1E1,3.6E1,1.4E1,4E0,1E0,9E0,1E0,1E0,2.2E1,7.9E1,2.27E2,9.2E1,1.07E2,2.35E2,4E1,5E0,1.72E2,8.2E1,1.09E2,6.6E1],"tree_param":{"num_deleted":"0","num_feature":"3","num_nodes":"81","size_leaf_vector":"1"}},{"base_weights":[-2.3475645E-2,-1.3996612E0,6.0772324E-1,-2.2060149E0,-7.456132E-1,-3.5102117E0,6.9051933E-1,-5.9946475E0,-2.0547013E0,-1.054068E0,1.397385E-1,-5.8741946E0,-9.1221493E-1,3.0538663E-1,1.2094128E0,-7.859212E-1,-4.0290084E-1,-2.7789314E0,-1.824646E0,-1.2220696E0,-7.047811E-1,-3.138683E-2,2.7403705E0,-8.544072E0,-4.494719E0,-1.3005835E0,-5.5036798E-2,-4.0942726E-1,1.1037289E0,1.0074997E0,1.6223812E0,-3.3376178E-1,-2.5979796E-1,-2.1618623E-1,-1.7608379E-1,-1.4317818E-1,-1.16320446E-1,-8.8338405E-2,-6.1027862E-2,-1.468508E-1,4.1996685E-1,1.283953E-1,3.483474E-1,-1.0527694E0,-2.6929158E-1,-3.6188617E-1,-7.385099E-1,-6.685997E-1,-1.9203619E0,-1.5232593E0,-6.906818E-2,8.6239517E-1,2.5579906E0,8.673353E-1,1.2886609E-1,1.5248767E0,2.6422844E0,-2.5902342E-2,5.522553E-4,2.8201945E-2,8.802183E-2,-1.7601572E-1,-2.3962033E-3,-2.6345983E-1,-4.813204E-2,-3.7016425E-1,-1.3327438E-1,-2.7934879E-2,4.3765854E-2,5.322274E-2,1.359891E-1,3.3503363E-1,-1.0788259E-1,8.8618435E-2,1.0246817E-1,1.5239286E-1,1.8412395E-1,3.0267185E-1,1.1190012E-1],"categories":[],"categories_nodes":[],"categories_segments":[],"categories_sizes":[],"default_left":[0,0,0,0,0,0,0,0,0,0,0,0,0,0,0,0,0,0,0,0,0,0,0,0,0,0,0,0,0,0,0,0,0,0,0,0,0,0,0,0,0,0,0,0,0,0,0,0,0,0,0,0,0,0,0,0,0,0,0,0,0,0,0,0,0,0,0,0,0,0,0,0,0,0,0,0,0,0,0],"id":22,"left_children":[1,3,5,7,9,11,13,15,17,19,21,23,25,27,29,-1,-1,31,33,35,37,39,41,43,45,47,-1,49,51,53,55,-1,-1,-1,-1,-1,-1,-1,-1,57,59,-1,-1,-1,-1,-1,-1,61,63,65,67,69,71,73,-1,75,77,-1,-1,-1,-1,-1,-1,-1,-1,-1,-1,-1,-1,-1,-1,-1,-1,-1,-1,-1,-1,-1,-1],"loss_changes":[1.8536741E3,3.5223657E2,5.0123224E2,1.596643E2,1.0173712E2,1.7274847E2,2.8640515E2,4.6721497E0,4.3247192E1,1.5334595E1,4.325431E1,1.6842285E1,1.6884165E0,4.7125146E2,4.9312866E1,0E0,0E0,4.5269775E-1,4.379822E0,1.3334656E0,9.863777E-1,4.8562603E0,6.5104675E-1,4.5512695E0,9.326508E0,1.4578753E0,0E0,1.6518361E2,1.3466934E2,9.607452E0,1.5760437E1,0E0,0E0,0E0,0E0,0E0,0E0,0E0,0E0,1.042555E0,9.7927594E-1,0E0,0E0,0E0,0E0,0E0,0E0,3.062364E0,1.1967249E0,5.2179825E1,3.0123003E1,4.850859E1,1.0853778E2,1.3897705E-1,0E0,1.3879089E0,1.113327E0,0E0,0E0,0E0,0E0,0E0,0E0,0E0,0E0,0E0,0E0,0E0,0E0,0E0,0E0,0E0,0E0,0E0,0E0,0E0,0E0,0E0,0E0],"parents":[2147483647,0,0,1,1,2,2,3,3,4,4,5,5,6,6,7,7,8,8,9,9,10,10,11,11,12,12,13,13,14,14,17,17,18,18,19,19,20,20,21,21,22,22,23,23,24,24,25,25,27,27,28,28,29,29,30,30,39,39,40,40,47,47,48,48,49,49,50,50,51,51,52,52,53,53,55,55,56,56],"right_children":[2,4,6,8,10,12,14,16,18,20,22,24,26,28,30,-1,-1,32,34,36,38,40,42,44,46,48,-1,50,52,54,56,-1,-1,-1,-1,-1,-1,-1,-1,58,60,-1,-1,-1,-1,-1,-1,62,64,66,68,70,72,74,-1,76,78,-1,-1,-1,-1,-1,-1,-1,-1,-1,-1,-1,-1,-1,-1,-1,-1,-1,-1,-1,-1,-1,-1],"split_conditions":[2.2E1,1.1026236E0,5.6304646E-1,6.939848E-1,1.3682657E0,1.22E2,1.5799166E0,4.4122273E-1,8.9364916E-1,1.2292513E0,1.6506424E0,8E0,5.5699027E-1,4E1,1.7859998E0,-7.859212E-1,-4.0290084E-1,8.474446E-1,1.018935E0,1.1665441E0,1.2895067E0,1.497822E0,2E0,4.4122273E-1,3.1E1,7.4E3,-5.5036798E-2,1.3176486E0,7.047349E-1,1.7287127E0,1.9455992E0,-3.3376178E-1,-2.5979796E-1,-2.1618623E-1,-1.7608379E-1,-1.4317818E-1,-1.16320446E-1,-8.8338405E-2,-6.1027862E-2,1.440948E0,1.5463903E0,1.283953E-1,3.483474E-1,-1.0527694E0,-2.6929158E-1,-3.6188617E-1,-7.385099E-1,5.1E3,7.6E3,7.9107636E-1,1.4924024E0,6.301612E-1,4.3E1,1.6812978E0,1.2886609E-1,1.8392509E0,4.7E1,-2.5902342E-2,5.522553E-4,2.8201945E-2,8.802183E-2,-1.7601572E-1,-2.3962033E-3,-2.6345983E-1,-4.813204E-2,-3.7016425E-1,-1.3327438E-1,-2.7934879E-2,4.3765854E-2,5.322274E-2,1.359891E-1,3.3503363E-1,-1.0788259E-1,8.8618435E-2,1.0246817E-1,1.5239286E-1,1.8412395E-1,3.0267185E-1,1.1190012E-1],"split_indices":[1,2,2,2,2,0,2,2,2,2,2,0,2,1,2,0,0,2,2,2,2,2,0,2,0,0,0,2,2,2,2,0,0,0,0,0,0,0,0,2,2,0,0,0,0,0,0,0,0,2,2,2,1,2,0,2,0,0,0,0,0,0,0,0,0,0,0,0,0,0,0,0,0,0,0,0,0,0,0],"split_type":[0,0,0,0,0,0,0,0,0,0,0,0,0,0,0,0,0,0,0,0,0,0,0,0,0,0,0,0,0,0,0,0,0,0,0,0,0,0,0,0,0,0,0,0,0,0,0,0,0,0,0,0,0,0,0,0,0,0,0,0,0,0,0,0,0,0,0,0,0,0,0,0,0,0,0,0,0,0,0],"sum_hessian":[2.132E3,6.7E2,1.462E3,2.99E2,3.71E2,2.8E1,1.434E3,1E1,2.89E2,2.75E2,9.6E1,1.4E1,1.4E1,8.24E2,6.1E2,5E0,5E0,6.7E1,2.22E2,1.84E2,9.1E1,9.1E1,5E0,3E0,1.1E1,6E0,8E0,4.35E2,3.89E2,4.12E2,1.98E2,3.3E1,3.4E1,1.13E2,1.09E2,1.04E2,8E1,4.8E1,4.3E1,7.3E1,1.8E1,2E0,3E0,2E0,1E0,9E0,2E0,4E0,2E0,1.01E2,3.34E2,3.35E2,5.4E1,2.37E2,1.75E2,1.83E2,1.5E1,4.5E1,2.8E1,1.4E1,4E0,1E0,3E0,1E0,1E0,1.2E1,8.9E1,2.39E2,9.5E1,1.74E2,1.61E2,4.7E1,7E0,1.55E2,8.2E1,1.16E2,6.7E1,1.3E1,2E0],"tree_param":{"num_deleted":"0","num_feature":"3","num_nodes":"79","size_leaf_vector":"1"}},{"base_weights":[-2.2803662E-2,-1.2512624E0,5.406404E-1,-2.1115856E0,-7.5470406E-1,-3.2328346E0,6.16522E-1,-5.6295614E0,-1.9535714E0,-1.0525444E0,1.6041946E-2,-5.2551537E0,-6.906962E-1,2.6279777E-1,1.0706505E0,-4.3523356E-1,-8.692325E-1,-2.9290342E-1,-1.7715064E0,-1.2155889E0,-7.9052013E-1,-1.3738216E-1,2.1811523E0,-7.950365E0,-4.021615E0,-2.556486E-1,-1.0892226E0,-4.072538E-1,9.8916095E-1,8.7528104E-1,1.4191058E0,-2.1361564E-1,-1.73457E-1,-1.4147359E-1,-1.1744908E-1,-9.699189E-2,-6.895199E-2,-2.9558083E-1,1.1741985E-1,1.2143168E-1,3.2008627E-1,-9.7684985E-1,-2.547268E-1,-3.0251207E0,-6.8525285E-1,-2.2018498E-3,-4.248464E-2,-1.8164978E0,-4.7055874E-2,-2.2740815E0,-2.3736691E-1,3.8897116E0,8.7823594E-1,8.190824E-2,1.0261344E0,1.3604343E0,3.064688E-1,-4.6272457E-2,-1.871429E-2,2.762293E-3,3.6190033E-2,-9.022343E-2,-3.4190944E-1,-2.4921052E-1,-4.552869E-2,-3.7582806E-1,-1.9360015E-1,-7.053861E-2,2.7061969E-3,4.4561815E-1,4.8766267E-2,5.284414E-2,1.4185856E-1,9.722111E-2,1.1682936E-1,1.3715874E-1,1.770231E-1],"categories":[],"categories_nodes":[],"categories_segments":[],"categories_sizes":[],"default_left":[0,0,0,0,0,0,0,0,0,0,0,0,0,0,0,0,0,0,0,0,0,0,0,0,0,0,0,0,0,0,0,0,0,0,0,0,0,0,0,0,0,0,0,0,0,0,0,0,0,0,0,0,0,0,0,0,0,0,0,0,0,0,0,0,0,0,0,0,0,0,0,0,0,0,0,0,0],"id":23,"left_children":[1,3,5,7,9,11,13,15,17,19,21,23,25,27,29,-1,-1,-1,31,33,35,37,39,41,43,45,47,49,51,53,55,-1,-1,-1,-1,-1,-1,57,59,-1,-1,-1,-1,61,-1,-1,-1,63,-1,65,67,69,71,-1,73,75,-1,-1,-1,-1,-1,-1,-1,-1,-1,-1,-1,-1,-1,-1,-1,-1,-1,-1,-1,-1,-1],"loss_changes":[1.4770706E3,2.8505786E2,4.209047E2,1.25195435E2,9.8038666E1,1.4545975E2,2.3023163E2,6.3105774E0,2.7609314E1,1.2197327E1,4.016127E1,2.1221039E1,2.1488323E0,3.9365704E2,4.151056E1,0E0,0E0,0E0,3.4232788E0,8.320923E-1,1.3943634E0,4.5896626E0,3.2659988E0,2.911972E0,1.080336E1,2.5008464E-1,2.5403337E0,1.3298013E2,1.2142044E2,6.436676E0,1.47300415E1,0E0,0E0,0E0,0E0,0E0,0E0,1.0602098E0,8.693371E-1,0E0,0E0,0E0,0E0,6.3409424E-1,0E0,0E0,0E0,1.0707808E0,0E0,1.41284485E1,4.2129635E1,9.208832E0,6.2666748E1,0E0,2.308197E-1,3.4638062E0,0E0,0E0,0E0,0E0,0E0,0E0,0E0,0E0,0E0,0E0,0E0,0E0,0E0,0E0,0E0,0E0,0E0,0E0,0E0,0E0,0E0],"parents":[2147483647,0,0,1,1,2,2,3,3,4,4,5,5,6,6,7,7,8,8,9,9,10,10,11,11,12,12,13,13,14,14,18,18,19,19,20,20,21,21,22,22,23,23,24,24,25,25,26,26,27,27,28,28,29,29,30,30,37,37,38,38,43,43,47,47,49,49,50,50,51,51,52,52,54,54,55,55],"right_children":[2,4,6,8,10,12,14,16,18,20,22,24,26,28,30,-1,-1,-1,32,34,36,38,40,42,44,46,48,50,52,54,56,-1,-1,-1,-1,-1,-1,58,60,-1,-1,-1,-1,62,-1,-1,-1,64,-1,66,68,70,72,-1,74,76,-1,-1,-1,-1,-1,-1,-1,-1,-1,-1,-1,-1,-1,-1,-1,-1,-1,-1,-1,-1,-1],"split_conditions":[2.2E1,1.0567629E0,5.6304646E-1,6.808694E-1,1.3286903E0,5.1E3,1.5632207E0,6.1E1,8.6382717E-1,1.1880405E0,1.5537149E0,8E0,7.4E3,4E1,1.7803866E0,-4.3523356E-1,-8.692325E-1,-2.9290342E-1,9.811309E-1,1.1372732E0,1.2477884E0,1.4418961E0,8E0,4.4122273E-1,4.3E1,5.5699027E-1,5.5699027E-1,1.1907903E0,1.01E2,1.7169634E0,2.0005283E0,-2.1361564E-1,-1.73457E-1,-1.4147359E-1,-1.1744908E-1,-9.699189E-2,-6.895199E-2,1.3841605E0,1.5077851E0,1.2143168E-1,3.2008627E-1,-9.7684985E-1,-2.547268E-1,4.4122273E-1,-6.8525285E-1,-2.2018498E-3,-4.248464E-2,7.6E3,-4.7055874E-2,7.731773E-1,1.3740772E0,4.3E1,6.402204E-1,8.190824E-2,1.7379129E0,1.8590747E0,3.064688E-1,-4.6272457E-2,-1.871429E-2,2.762293E-3,3.6190033E-2,-9.022343E-2,-3.4190944E-1,-2.4921052E-1,-4.552869E-2,-3.7582806E-1,-1.9360015E-1,-7.053861E-2,2.7061969E-3,4.4561815E-1,4.8766267E-2,5.284414E-2,1.4185856E-1,9.722111E-2,1.1682936E-1,1.3715874E-1,1.770231E-1],"split_indices":[1,2,2,2,2,0,2,0,2,2,2,0,0,1,2,0,0,0,2,2,2,2,0,2,1,2,2,2,0,2,2,0,0,0,0,0,0,2,2,0,0,0,0,2,0,0,0,0,0,2,2,1,2,0,2,2,0,0,0,0,0,0,0,0,0,0,0,0,0,0,0,0,0,0,0,0,0],"split_type":[0,0,0,0,0,0,0,0,0,0,0,0,0,0,0,0,0,0,0,0,0,0,0,0,0,0,0,0,0,0,0,0,0,0,0,0,0,0,0,0,0,0,0,0,0,0,0,0,0,0,0,0,0,0,0,0,0,0,0,0,0,0,0,0,0,0,0,0,0,0,0,0,0,0,0,0,0],"sum_hessian":[2.132E3,6.7E2,1.462E3,2.44E2,4.26E2,2.8E1,1.434E3,9E0,2.35E2,3.07E2,1.19E2,1.5E1,1.3E1,8.07E2,6.27E2,7E0,2E0,4.3E1,1.92E2,1.87E2,1.2E2,1.12E2,7E0,3E0,1.2E1,7E0,6E0,4.2E2,3.87E2,4.04E2,2.23E2,8.2E1,1.1E2,1.04E2,8.3E1,6.8E1,5.2E1,6.9E1,4.3E1,4E0,3E0,2E0,1E0,1E1,2E0,3E0,4E0,2E0,4E0,3.4E1,3.86E2,1.3E1,3.74E2,2.3E2,1.74E2,2.16E2,7E0,3.2E1,3.7E1,3.1E1,1.2E1,1E0,9E0,1E0,1E0,8E0,2.6E1,1.49E2,2.37E2,1.2E1,1E0,1.98E2,1.76E2,5.7E1,1.17E2,1.66E2,5E1],"tree_param":{"num_deleted":"0","num_feature":"3","num_nodes":"77","size_leaf_vector":"1"}},{"base_weights":[-2.2100307E-2,-1.1188829E0,4.8095042E-1,-1.8695508E0,-6.600586E-1,-2.9774592E0,5.505065E-1,-4.9926367E0,-1.7210939E0,-9.2052853E-1,4.260254E-2,-4.97331E0,-7.831108E-1,2.302887E-1,9.5243055E-1,-3.9122343E-1,-8.0654854E-1,-2.2276137E0,-1.5167751E0,-1.0600748E0,-6.6708654E-1,-1.0417347E-1,2.0004063E0,-7.398258E0,-3.7505515E0,-1.1380022E0,-4.2007193E-1,-3.8136315E-1,8.840189E-1,8.0176526E-1,1.3210077E0,-2.775753E-1,-2.1322264E-1,-1.812038E-1,-1.5251066E-1,-1.2377852E-1,-1.0115927E-1,-8.238875E-2,-5.753513E-2,-2.2724628E-1,1.4486589E-1,1.1092354E-1,2.941184E-1,-9.064051E-1,-2.4094976E-1,-2.7372456E0,-6.3583636E-1,-5.622536E-1,-1.718249E0,-1.0554931E-2,-4.8480928E-2,-2.0716867E0,-2.2951967E-1,4.0112308E-1,7.837557E-1,7.022147E-1,1.062295E-1,1.2569557E0,2.7746195E-1,-3.970827E-2,-1.5168378E-2,5.8599077E-3,3.257644E-2,-3.1002498E-1,-8.534365E-2,-1.4800322E-1,-2.02297E-3,-2.3573162E-1,-4.306605E-2,-3.396914E-1,-1.7546432E-1,-8.144899E-2,-6.2605706E-3,4.1815244E-2,1.21765E-1,7.019133E-2,8.430484E-2,1.2675968E-1,1.6232231E-1],"categories":[],"categories_nodes":[],"categories_segments":[],"categories_sizes":[],"default_left":[0,0,0,0,0,0,0,0,0,0,0,0,0,0,0,0,0,0,0,0,0,0,0,0,0,0,0,0,0,0,0,0,0,0,0,0,0,0,0,0,0,0,0,0,0,0,0,0,0,0,0,0,0,0,0,0,0,0,0,0,0,0,0,0,0,0,0,0,0,0,0,0,0,0,0,0,0,0,0],"id":24,"left_children":[1,3,5,7,9,11,13,15,17,19,21,23,25,27,29,-1,-1,31,33,35,37,39,41,43,45,47,49,51,53,55,57,-1,-1,-1,-1,-1,-1,-1,-1,59,61,-1,-1,-1,-1,63,-1,65,67,-1,-1,69,71,-1,73,75,-1,77,-1,-1,-1,-1,-1,-1,-1,-1,-1,-1,-1,-1,-1,-1,-1,-1,-1,-1,-1,-1,-1],"loss_changes":[1.1773938E3,2.2987494E2,3.535686E2,1.0917273E2,7.6542435E1,1.23113525E2,1.8446985E2,1.0320007E1,2.1873169E1,1.0079742E1,3.2967266E1,1.672934E1,1.4545479E0,3.2022137E2,3.4259094E1,0E0,0E0,8.442383E-1,6.3430786E-1,9.807892E-1,1.0140076E0,3.3124676E0,2.8166847E0,1.6272278E0,9.780075E0,1.3724422E0,3.787017E-2,1.0578366E2,1.0667795E2,7.458496E0,1.13576355E1,0E0,0E0,0E0,0E0,0E0,0E0,0E0,0E0,8.2469654E-1,4.939676E-1,0E0,0E0,0E0,0E0,2.483902E-1,0E0,2.1648648E0,9.5809174E-1,0E0,0E0,1.1241119E1,3.4187584E1,0E0,5.0491623E1,7.120056E-1,0E0,1.8913574E0,0E0,0E0,0E0,0E0,0E0,0E0,0E0,0E0,0E0,0E0,0E0,0E0,0E0,0E0,0E0,0E0,0E0,0E0,0E0,0E0,0E0],"parents":[2147483647,0,0,1,1,2,2,3,3,4,4,5,5,6,6,7,7,8,8,9,9,10,10,11,11,12,12,13,13,14,14,17,17,18,18,19,19,20,20,21,21,22,22,23,23,24,24,25,25,26,26,27,27,28,28,29,29,30,30,39,39,40,40,45,45,47,47,48,48,51,51,52,52,54,54,55,55,57,57],"right_children":[2,4,6,8,10,12,14,16,18,20,22,24,26,28,30,-1,-1,32,34,36,38,40,42,44,46,48,50,52,54,56,58,-1,-1,-1,-1,-1,-1,-1,-1,60,62,-1,-1,-1,-1,64,-1,66,68,-1,-1,70,72,-1,74,76,-1,78,-1,-1,-1,-1,-1,-1,-1,-1,-1,-1,-1,-1,-1,-1,-1,-1,-1,-1,-1,-1,-1],"split_conditions":[2.2E1,1.0609068E0,5.6304646E-1,6.939848E-1,1.3439244E0,1.22E2,1.5537149E0,6.1E1,8.9364916E-1,1.1969385E0,1.5537149E0,8E0,5.5699027E-1,4E1,1.7929914E0,-3.9122343E-1,-8.0654854E-1,8.3649486E-1,9.907592E-1,1.1461399E0,1.2613935E0,1.4565623E0,8E0,4.4122273E-1,3.1E1,7.4E3,6.6E3,1.1880405E0,1.01E2,1.7379129E0,2.0005283E0,-2.775753E-1,-2.1322264E-1,-1.812038E-1,-1.5251066E-1,-1.2377852E-1,-1.0115927E-1,-8.238875E-2,-5.753513E-2,1.3841605E0,1.5077851E0,1.1092354E-1,2.941184E-1,-9.064051E-1,-2.4094976E-1,2.9E1,-6.3583636E-1,5.1E3,7.6E3,-1.0554931E-2,-4.8480928E-2,7.731773E-1,1.3323486E0,4.0112308E-1,6.301612E-1,1.6812978E0,1.062295E-1,1.8675892E0,2.7746195E-1,-3.970827E-2,-1.5168378E-2,5.8599077E-3,3.257644E-2,-3.1002498E-1,-8.534365E-2,-1.4800322E-1,-2.02297E-3,-2.3573162E-1,-4.306605E-2,-3.396914E-1,-1.7546432E-1,-8.144899E-2,-6.2605706E-3,4.1815244E-2,1.21765E-1,7.019133E-2,8.430484E-2,1.2675968E-1,1.6232231E-1],"split_indices":[1,2,2,2,2,0,2,0,2,2,2,0,2,1,2,0,0,2,2,2,2,2,0,2,0,0,0,2,0,2,2,0,0,0,0,0,0,0,0,2,2,0,0,0,0,0,0,0,0,0,0,2,2,0,2,2,0,2,0,0,0,0,0,0,0,0,0,0,0,0,0,0,0,0,0,0,0,0,0],"split_type":[0,0,0,0,0,0,0,0,0,0,0,0,0,0,0,0,0,0,0,0,0,0,0,0,0,0,0,0,0,0,0,0,0,0,0,0,0,0,0,0,0,0,0,0,0,0,0,0,0,0,0,0,0,0,0,0,0,0,0,0,0,0,0,0,0,0,0,0,0,0,0,0,0,0,0,0,0,0,0],"sum_hessian":[2.132E3,6.7E2,1.462E3,2.53E2,4.17E2,2.8E1,1.434E3,1E1,2.43E2,3.04E2,1.13E2,1.4E1,1.4E1,7.99E2,6.35E2,8E0,2E0,6.7E1,1.76E2,1.94E2,1.1E2,1.06E2,7E0,3E0,1.1E1,6E0,8E0,4.13E2,3.86E2,4.53E2,1.82E2,2.5E1,4.2E1,6.5E1,1.11E2,1.11E2,8.3E1,6.2E1,4.8E1,7.1E1,3.5E1,4E0,3E0,2E0,1E0,9E0,2E0,4E0,2E0,1E0,7E0,3.3E1,3.8E2,1.2E1,3.74E2,2.95E2,1.58E2,1.75E2,7E0,2.6E1,4.5E1,2.3E1,1.2E1,8E0,1E0,1E0,3E0,1E0,1E0,8E0,2.5E1,9.3E1,2.87E2,1.74E2,2E2,1.8E2,1.15E2,1.34E2,4.1E1],"tree_param":{"num_deleted":"0","num_feature":"3","num_nodes":"79","size_leaf_vector":"1"}},{"base_weights":[-2.1526681E-2,-1.0008304E0,4.2764238E-1,-1.6954682E0,-5.999239E-1,-2.7473304E0,4.915076E-1,-5.638772E0,-1.5898211E0,-8.5087514E-1,-7.0701838E-3,-4.580579E0,-7.3092675E-1,2.0254384E-1,8.4812087E-1,-1.5568571E-1,-6.696692E-1,-2.2691262E0,-1.4126374E0,-9.748227E-1,-6.5415806E-1,-1.1169142E-1,2.1388435E0,-6.884819E0,-3.430784E0,-1.0761636E0,-3.8119507E-1,-3.5503158E-1,7.898519E-1,7.308191E-1,1.2313353E0,-2.8973645E-1,-2.0922692E-1,-1.7037903E-1,-1.3829045E-1,-1.127879E-1,-9.421492E-2,-7.807434E-2,-5.699984E-2,-2.3571688E-1,1.7193703E-1,6.4260505E-2,2.519294E-1,-8.410405E-1,-2.2791785E-1,-2.6833948E-1,-5.899835E-1,-5.3143996E-1,-1.6253153E0,-1.982882E-2,-4.8632298E-2,-1.8390584E0,-2.1520276E-1,6.1287355E-1,2.1212683E0,6.2573355E-1,9.643107E-2,1.1612039E0,2.512006E-1,-3.858917E-2,-1.3813676E-2,1.0006782E-2,6.275409E-2,-1.399984E-1,-1.8589455E-3,-2.2298186E-1,-4.0736694E-2,-3.0702934E-1,-1.5553327E-1,-7.2311655E-2,-7.025772E-3,-2.008861E-2,8.0760926E-2,2.7742064E-1,-2.0970754E-1,6.2623784E-2,7.5264096E-2,1.17302075E-1,1.4854506E-1],"categories":[],"categories_nodes":[],"categories_segments":[],"categories_sizes":[],"default_left":[0,0,0,0,0,0,0,0,0,0,0,0,0,0,0,0,0,0,0,0,0,0,0,0,0,0,0,0,0,0,0,0,0,0,0,0,0,0,0,0,0,0,0,0,0,0,0,0,0,0,0,0,0,0,0,0,0,0,0,0,0,0,0,0,0,0,0,0,0,0,0,0,0,0,0,0,0,0,0],"id":25,"left_children":[1,3,5,7,9,11,13,15,17,19,21,23,25,27,29,-1,-1,31,33,35,37,39,41,43,45,47,49,51,53,55,57,-1,-1,-1,-1,-1,-1,-1,-1,59,61,-1,-1,-1,-1,-1,-1,63,65,-1,-1,67,69,71,73,75,-1,77,-1,-1,-1,-1,-1,-1,-1,-1,-1,-1,-1,-1,-1,-1,-1,-1,-1,-1,-1,-1,-1],"loss_changes":[9.38677E2,1.8584619E2,2.980033E2,9.310193E1,6.3521896E1,1.038524E2,1.4770248E2,5.0000153E0,2.5681335E1,6.6770935E0,2.8975931E1,1.6120728E1,1.400876E0,2.6029047E2,2.7959167E1,0E0,0E0,1.4000549E0,2.1938171E0,3.7431335E-1,6.4318085E-1,4.367318E0,3.788185E-1,6.3191223E-1,9.538666E0,1.2301931E0,3.9389014E-2,8.426819E1,8.988945E1,7.781769E0,8.702988E0,0E0,0E0,0E0,0E0,0E0,0E0,0E0,0E0,1.0786762E0,1.1783913E0,0E0,0E0,0E0,0E0,0E0,0E0,1.9390992E0,8.5725975E-1,0E0,0E0,9.951668E0,2.542891E1,3.6768997E1,8.5975266E1,5.8732605E-1,0E0,8.229828E-1,0E0,0E0,0E0,0E0,0E0,0E0,0E0,0E0,0E0,0E0,0E0,0E0,0E0,0E0,0E0,0E0,0E0,0E0,0E0,0E0,0E0],"parents":[2147483647,0,0,1,1,2,2,3,3,4,4,5,5,6,6,7,7,8,8,9,9,10,10,11,11,12,12,13,13,14,14,17,17,18,18,19,19,20,20,21,21,22,22,23,23,24,24,25,25,26,26,27,27,28,28,29,29,30,30,39,39,40,40,47,47,48,48,51,51,52,52,53,53,54,54,55,55,57,57],"right_children":[2,4,6,8,10,12,14,16,18,20,22,24,26,28,30,-1,-1,32,34,36,38,40,42,44,46,48,50,52,54,56,58,-1,-1,-1,-1,-1,-1,-1,-1,60,62,-1,-1,-1,-1,-1,-1,64,66,-1,-1,68,70,72,74,76,-1,78,-1,-1,-1,-1,-1,-1,-1,-1,-1,-1,-1,-1,-1,-1,-1,-1,-1,-1,-1,-1,-1],"split_conditions":[2.2E1,1.0567629E0,5.6304646E-1,4.4122273E-1,1.3143944E0,1.22E2,1.5463903E0,4.1E1,8.6382717E-1,1.1822892E0,1.6506424E0,8E0,5.5699027E-1,4E1,1.806055E0,-1.5568571E-1,-6.696692E-1,7.731773E-1,